tree
version=v4
num_class=1
num_tree_per_iteration=1
label_index=0
max_feature_idx=30
objective=binary sigmoid:1
feature_names=loan_amnt int_rate installment annual_inc dti fico_range_low fico_range_high delinq_2yrs inq_last_6mths open_acc pub_rec total_acc revol_bal revol_util collections_12_mths_ex_med mort_acc tot_cur_bal total_rev_hi_lim acc_now_delinq term grade sub_grade home_ownership verification_status purpose addr_state application_type initial_list_status emp_length_years installment_to_income credit_history_years
feature_infos=[500:35000] [5.4199999999999999:26.059999999999999] [15.69:1409.99] [4000:7446395] [0:39.990000000000002] [625:845] [629:850] [0:29] [0:8] [0:84] [0:63] [2:156] [0:1746716] [0:892.29999999999995] [0:16] [0:31] [0:8000078] [0:1998700] [0:5] -1:0:1 -1:1:2:0:3:4:5 -1:7:8:6:10:9:11:12:5:4:13:3:14:15:16:2:17:1:18:0:19:20:21:22:23:24:25:26:27:28:29:30:31:32:33 -1:1:5:4:3 -1:2:0:1 -1:2:1:4:9:6:11:0:7:8:12:13:5:3 -1:4:33:42:9:14:30:37:34:10:44:27:22:20:19:46:3:5:23:24:6:32:15:36:47:41:18:1:39:17:16:35:43:2:31:11:48:29:38:7:26:0:8:49:40:25:45 none -1:0:1 [0:10] [0.0004889230769230769:0.29755846153846155] [2.9979466119096507:70.162902121834364]
tree_sizes=6685 6859 6796 6967 6868 6862 6933 6907 6801 6872 6975 6904 6954 6920 6967 6968 6947 6958 6959 6880 7036 6942 6971 6844 6912 7025 6959 6963 6977 7001 6893 6926 7016 7009 7029 6966 7021 7005 7047 7033 6952 6976 7027 7037 7014 7015 7005 7027 6979 7046 6980 7018 7072 6905 7059 7026 7017 6907 6911 7026 7015 6932 6963 7048 7044 7009 6995 7021 7018 7041 6965 6956 6927 6993 6937 7051 6969 7032 6956 7000 6894 7013 7042 7017 7001 6880 6972 7003 7021 6911 7028 7023 6971 7022 6977 7025 6957 7040 6923 7062 6967 6983 7007 6960 6944 6974 6950 6987 7022 6933 6964 7045 6992 6957 6967 6976 6945 7006 6959 6974 7010 6945 6937 6953 6912 7059 7024 6979 6922 6988 6983 6924 6976 6929 6949 6849 6914 6915 6900 6812 6884 6950 6951 6930 6863 6855 7007 6950 6845 6790 6956 6979 6868 7004 6935

Tree=0
num_leaves=63
num_cat=27
split_feature=21 21 21 29 29 3 21 19 19 19 19 29 3 3 3 19 3 3 3 4 25 29 3 3 29 25 4 4 15 21 25 25 21 5 4 15 16 25 5 4 5 21 16 25 25 28 25 5 25 21 29 29 25 3 25 12 4 9 25 4 25 25
split_gain=10234.9 1578.64 1505.12 619.093 586.013 352.737 278.384 276.707 203.52 178.19 164.192 138.289 138.097 127.447 113.508 104.122 99.9986 96.4455 75.3497 74.4452 67.9011 67.6992 66.5041 64.0549 63.7436 62.0512 52.8778 50.4103 49.9099 49.7834 49.206 48.3473 45.3634 42.2125 41.0347 36.6241 35.6008 35.3435 35.1032 34.2118 34.0864 33.7769 33.4791 44.6802 31.9128 31.1324 30.8511 30.4846 29.4017 29.3896 29.0992 28.7687 28.4907 31.0557 28.4347 28.0625 36.7166 27.6165 27.334 27.2832 27.264 26.1378
threshold=0 1 2 0.084900400000000015 0.077071028571428585 61004.500000000007 3 4 5 6 7 0.11323425882352943 82004.000000000015 50504.000000000007 65795.500000000015 8 76001.60000000002 52000.350000000006 38482.000000000007 18.265000000000004 9 0.039049667565139265 63812.200000000004 73003.000000000015 0.10776639353365831 10 19.175000000000004 23.235000000000003 3.5000000000000004 11 12 13 14 672.50000000000011 18.805000000000003 1.0000000180025095e-35 241537.00000000003 15 672.50000000000011 24.705000000000002 707.50000000000011 16 45016.500000000007 17 18 inf 19 672.50000000000011 20 21 0.018262162790697676 0.10979628571428574 22 27842.500000000004 23 27557.500000000004 18.265000000000004 11.500000000000002 24 11.915000000000001 25 26
decision_type=9 9 9 2 2 2 9 1 1 1 1 2 2 2 2 1 2 2 2 2 9 2 2 2 2 9 2 2 8 9 9 9 9 2 2 10 8 9 2 2 2 9 10 9 9 8 9 2 9 9 2 2 9 2 9 2 2 2 9 2 9 9
left_child=1 5 3 8 21 9 13 14 16 11 27 19 33 45 24 29 20 59 32 41 -2 -4 -8 42 46 -25 50 -6 58 34 -21 47 -13 57 -7 -19 49 -20 -28 54 -37 -1 43 -10 -36 -3 -5 -26 -43 -16 -22 -35 -11 -54 -23 56 -53 -12 -18 -9 -17 -34
right_child=2 6 4 7 10 15 22 17 23 52 12 18 -14 -15 36 60 28 35 37 30 26 39 -24 25 31 -27 38 -29 -30 -31 -32 -33 61 51 44 40 -38 -39 -40 -41 -42 48 -44 -45 -46 -47 -48 -49 -50 -51 -52 55 53 -55 -56 -57 -58 -59 -60 -61 -62 -63
leaf_value=-1.7333538774942099 -1.7071482487386447 -1.727286039756067 -1.6912034555414004 -1.7049933646217397 -1.6627921730653057 -1.7282269551027216 -1.7439189637812318 -1.6688211510869193 -1.7028018113818919 -1.7201170301775357 -1.6165123797188161 -1.6694565442369191 -1.6521879392563263 -1.7399733730015163 -1.6656280204092622 -1.7005179593332036 -1.719400589354489 -1.6514021625073321 -1.7029343289470498 -1.7028857362575875 -1.7311404960468051 -1.7018578060491083 -1.7551197577442559 -1.6797659259389459 -1.6587962585384752 -1.703907460370722 -1.6719980026378343 -1.6365745442192234 -1.72500444040226 -1.733705932833651 -1.7181009350168319 -1.6845830512418463 -1.6890893790659194 -1.6403746619129926 -1.7259041110412972 -1.6663777432977538 -1.7092294327726087 -1.7214907101666792 -1.6922728748875187 -1.6453535720788768 -1.6898191455313489 -1.7295546425388268 -1.6820135618782071 -1.6515080271277225 -1.7074589590804921 -1.7057128678443205 -1.6832330629597518 -1.6734224334058203 -1.7155058731403383 -1.6952419795431115 -1.6970852178518274 -1.6336766435901904 -1.6204243250113657 -1.6825904776158191 -1.6691219327191544 -1.6471001581580247 -1.6012267333983448 -1.5923285176513531 -1.7015909475399438 -1.6389559712888768 -1.717904824255774 -1.7080105982566078
leaf_weight=589.71485340595245 1257.133005797863 2044.8031751513481 497.09355878829956 237.26099139451981 544.96086651086807 1859.5605859160423 2205.6580845713615 88.470200181007385 67.066119492053986 50.332020044326782 283.57163870334625 188.09646666049957 386.57066941261292 4843.9380424618721 101.31264859437943 392.27842426300049 291.09549736976624 255.4220295548439 618.64279276132584 1107.0449975728989 66.287789285182953 95.086006939411163 3319.96749740839 596.59010356664658 636.9335526227951 505.65519106388092 402.65616035461426 276.30722343921661 564.41912168264389 2612.8545044660568 1003.5270800590515 737.4678710103035 434.30825543403625 224.93742978572845 401.87783014774323 521.0920735001564 364.777423620224 423.67107594013214 454.41511911153793 137.2455598115921 220.78633534908295 519.01652628183365 341.42751741409302 269.43197327852249 544.44197970628738 182.12926840782166 673.12590724229813 808.42564153671265 1362.8561922311783 545.47975331544876 1167.6250320076942 136.85639470815659 20.885193884372711 527.44843685626984 724.36597919464111 71.865822434425354 240.11486881971359 202.23613208532333 755.49918746948242 563.9002348780632 503.06075704097748 326.76896518468857
leaf_count=4546 9691 15763 3832 1829 4201 14335 17003 682 517 388 2186 1450 2980 37341 781 3024 2244 1969 4769 8534 511 733 25593 4599 4910 3898 3104 2130 4351 20142 7736 5685 3348 1734 3098 4017 2812 3266 3503 1058 1702 4001 2632 2077 4197 1404 5189 6232 10506 4205 9001 1055 161 4066 5584 554 1851 1559 5824 4347 3878 2519
internal_value=-1.70992 -1.72935 -1.67887 -1.68731 -1.6514 -1.71745 -1.74208 -1.67525 -1.69758 -1.70986 -1.6359 -1.71224 -1.62631 -1.73539 -1.6822 -1.72607 -1.70278 -1.65795 -1.70124 -1.71702 -1.69786 -1.67623 -1.75057 -1.68308 -1.67745 -1.69051 -1.69237 -1.65397 -1.71302 -1.72868 -1.71013 -1.67281 -1.69105 -1.61768 -1.72386 -1.66773 -1.69674 -1.71052 -1.68275 -1.66846 -1.67335 -1.72291 -1.67098 -1.65979 -1.71544 -1.72552 -1.68856 -1.66727 -1.71946 -1.68969 -1.69891 -1.62578 -1.68375 -1.68075 -1.67233 -1.61847 -1.61301 -1.60644 -1.70656 -1.64301 -1.71027 -1.69708
internal_weight=42397.9 26082.9 16315 12493.8 3821.21 13486.4 12596.5 5754.45 6739.3 7172.31 2367.42 6573.65 1546.15 7070.87 4104.78 6314.07 4959.13 1649.67 1991.49 4582.16 3348.12 1453.79 5525.63 1780.17 3093.21 1102.25 2090.98 821.268 1611.01 5418.73 2110.57 2182.83 949.174 1159.58 2805.88 997.3 1011.57 1042.31 857.071 956.698 741.878 2471.59 677.926 336.498 946.32 2226.93 910.387 1445.36 1881.87 646.792 1233.91 673.775 598.666 548.334 819.452 448.837 376.971 485.808 1046.59 652.37 895.339 761.077
internal_count=326837 201068 125769 96312 29457 103964 97104 44360 51952 55290 18250 50675 11919 54508 31643 48674 38229 12717 15352 35323 25810 11207 42596 13723 23845 8497 16119 6331 12419 41772 16270 16827 7317 8939 21630 7688 7798 8035 6607 7375 5719 19053 5226 2594 7295 17167 7018 11142 14507 4986 9512 5194 4615 4227 6317 3460 2906 3745 8068 5029 6902 5867
cat_boundaries=0 1 2 4 5 6 7 8 9 10 12 14 15 17 19 20 22 23 25 27 29 31 32 34 36 38 40 42
cat_threshold=4095 3968 1044480 2 112 1 1 1 1 1 748373384 224688 1213762086 18091 3584 3944350549 6723 1239319070 4871 2048 3390997180 33635 128 1074463008 102616 625525985 187600 1187055749 208240 2349007944 125172 786432 67110921 239680 603979937 94664 235227296 67762 1707377418 168230 1104970774 20707
is_linear=0
shrinkage=1


Tree=1
num_leaves=63
num_cat=24
split_feature=21 21 20 29 29 3 1 19 19 19 19 29 3 3 15 19 3 3 4 3 3 25 29 4 3 25 4 15 25 25 1 1 4 21 30 25 1 1 1 12 1 4 12 1 25 25 29 8 25 28 4 8 25 1 20 25 29 25 29 22 23 25
split_gain=9164.08 1486.59 1260.45 531.1 469.65 323.863 279.961 228.627 175.838 157.944 125.473 125.198 120.83 107.597 98.3283 96.4255 88.788 77.612 68.2831 67.0059 66.5249 60.1371 60.0436 58.2138 55.5598 53.2468 47.6242 47.5331 44.5695 43.57 43.0465 41.7227 40.0522 39.2208 38.0535 37.0287 36.9721 36.5956 35.794 37.7382 35.7498 35.4631 33.9783 32.7027 32.3235 32.0278 32.3884 31.8175 31.0515 30.1188 28.5746 28.1639 27.4035 27.1869 26.4207 25.8617 25.8443 25.5171 25.0742 26.3229 24.9976 24.848
threshold=0 1 2 0.084900400000000015 0.077071028571428585 61004.500000000007 8.2550000000000008 3 4 5 6 0.11323425882352943 50504.000000000007 85001.000000000015 1.5000000000000002 7 75000.500000000015 52000.350000000006 18.265000000000004 38482.000000000007 63812.200000000004 8 0.024407071428571434 21.665000000000003 73003.000000000015 9 18.535000000000004 3.5000000000000004 10 11 22.720000000000002 24.415000000000003 19.175000000000004 12 17.665982203969886 13 17.010000000000002 17.765000000000004 17.145000000000003 15479.500000000002 12.145000000000001 23.775000000000002 15479.500000000002 16.470000000000002 14 15 0.096325814257696027 1.0000000180025095e-35 16 inf 17.735000000000003 1.5000000000000002 17 16.265000000000004 18 19 0.11549622857142859 20 0.027676600000000003 21 22 23
decision_type=9 9 9 2 2 2 2 1 1 1 1 2 2 2 8 1 2 2 2 2 2 9 2 2 2 9 2 8 9 9 2 2 2 9 2 9 2 2 2 2 2 2 2 2 9 9 2 2 9 8 2 2 9 2 9 9 2 9 2 9 1 9
left_child=1 5 3 8 22 9 20 14 16 11 31 18 49 30 23 26 21 34 40 33 -3 58 -4 42 -10 37 -7 52 54 53 60 41 -23 -13 43 -28 -25 -26 -19 -40 -1 51 45 -9 -21 -5 -47 -34 -24 -8 -50 -6 -18 -16 -20 -42 -53 -11 -2 -60 -12 -17
right_child=2 6 4 7 10 15 12 17 24 57 13 19 -14 -15 29 61 27 38 28 44 -22 32 48 36 25 -27 35 -29 -30 -31 -32 -33 47 -35 -36 -37 -38 -39 39 -41 55 -43 -44 -45 -46 46 -48 -49 50 -51 -52 56 -54 -55 -56 -57 -58 -59 59 -61 -62 -63
leaf_value=-0.020887309114882187 -0.01633525995209446 -0.033047116438141448 0.0067909184661265236 0.012095369575819708 0.031817124019303269 -0.021561080106145613 -0.016465678471258145 0.052706558552286391 0.035938064328929216 0.0041599042451717682 0.088662656171625234 0.037410034352411095 -0.029089399673290703 0.049928641164307883 0.015411033618216947 -0.0083329919099956393 -0.0088262816123555674 0.028194052079851359 0.015366819352082837 -0.011983914822715316 -0.044165428343335922 0.010490535101262844 0.016651787959571087 0.032458644530446827 0.021039631284327849 0.0062155616019295267 -0.004141092007507014 -0.014665424987836207 -0.008602198352699578 0.006400511613280712 0.092439622095387475 0.083833512415987452 0.012400960974363944 0.011995638764275162 0.041151585568321374 -0.018533523391711961 0.050502617172872556 0.049311212804907828 0.065578243988450011 0.038086506643213211 -0.017563828165013947 0.062873474260218665 0.011033298091819944 0.078697548597576938 0.0060576886941366044 0.014835245446221806 0.03796997197205107 0.031574354282955068 0.032816923627424881 0.0051811705725390029 0.049817776450376217 0.035830480526632298 0.0084758079283849853 0.035691409214427108 0.00014381091064538464 -0.0037963381595072614 0.074994254631749649 0.029688515447642685 -0.0031470845292722242 0.013070485548839586 0.068488415837644798 0.0081607228895857111
leaf_weight=846.35324588418007 161.45156572759151 2258.5358407348394 215.89035668969154 272.97099411487579 350.48360227048397 3528.6089576482773 1956.5948577225208 209.13234941661358 694.38965639472008 142.21130768954754 209.35432708263397 193.39442551136017 4598.192248031497 347.46154287457466 366.24018484354019 466.70127305388451 319.81977501511574 449.68932828307152 455.869469165802 385.88930553197861 3327.5993686914444 1289.6736158281565 241.38513781130314 721.83793711662292 410.02723002433777 541.68379276990891 892.05859480798244 565.02299948036671 909.02759051322937 748.65109494328499 517.51005272567272 87.172498047351837 352.31643933057785 767.74753975868225 184.47356681525707 927.65617376565933 467.91581578552723 158.7928452193737 185.55641016364098 381.42665840685368 495.53295749425888 248.35701942443848 344.91858316957951 287.26981790363789 655.95193973183632 188.31002582609653 769.48709458112717 560.77809339761734 630.81629565358162 175.06771096587181 406.38598945736885 79.210461676120758 745.09301117062569 301.12285020947456 745.23416078090668 1107.6425950974226 89.97234633564949 467.4083226621151 502.97900959849358 485.3716606348753 576.0266552567482 428.3489186167717
leaf_count=6612 1242 17819 1643 2070 2615 27604 15270 1541 5215 1085 1519 1450 36204 2575 2777 3618 2479 3371 3500 2999 26465 9871 1826 5451 3096 4154 6929 4401 7048 5691 3746 647 2671 5867 1358 7239 3527 1199 1388 2855 3868 1821 2614 2115 5036 1430 5791 4247 4748 1346 3043 591 5711 2280 5722 8573 671 3530 3868 3732 4179 3284
internal_value=-0.000122421 -0.018828 0.0287516 0.020985 0.0532312 -0.0072989 -0.0313704 0.0320026 0.0114729 -5.6199e-05 0.0665961 -0.00231763 -0.0245278 0.0746506 0.0257201 -0.0156309 0.00662925 0.0474777 -0.00689486 0.00810211 -0.0396702 0.0112832 0.0311807 0.0312066 0.0248442 0.0179073 -0.0181728 -0.00294328 -0.000302405 0.0150051 0.0812436 0.0510526 0.0160905 0.0176234 0.0605418 -0.0116027 0.0395551 0.0284321 0.0387285 0.0470837 -0.0125739 0.0473319 0.024903 0.0677476 -0.000681653 0.0287899 0.0330762 0.0241763 0.0352989 -0.0146879 0.039101 0.0399043 0.00327627 0.0241992 0.00600076 -0.00818503 0.056658 0.0242885 0.00191671 0.00491765 0.0738661 -0.000441432
internal_weight=42398.1 25731.6 16666.4 12666.4 4000.03 13415.6 12316 5879 6787.4 7172.26 2505.55 6562.64 6729.85 1650.35 4181.45 6243.37 4982.51 1697.55 4559.66 2002.98 5586.14 3352.57 1494.48 2765.44 1804.89 1110.5 5348.32 1629.94 2110.13 1416.01 1302.89 855.196 2202.77 961.142 680.876 1819.71 1189.75 568.82 1016.67 566.983 2449.53 768.023 1575.69 496.402 1041.84 1230.77 957.797 913.095 1278.59 2131.66 1037.2 519.666 1064.91 667.363 1201.1 1603.18 169.183 609.62 1149.8 988.351 785.381 895.05
internal_count=326837 201068 125769 96145 29624 103964 97104 44259 51886 55290 18364 50675 52820 12019 31631 48674 38222 12628 35323 15352 44284 25631 11260 20883 13664 8449 41772 12591 16270 10748 9444 6345 16789 7317 5014 14168 8978 4295 7614 4243 19053 5698 11905 3656 8035 9291 7221 6918 9617 16616 7791 3877 8190 5057 9222 12441 1262 4615 8842 7600 5698 6902
cat_boundaries=0 1 2 3 4 5 6 7 8 10 12 14 16 17 19 21 23 25 27 28 30 32 33 34 36
cat_threshold=4095 3968 12 1 1 1 1 1 614155688 208304 1213762086 1195 3944350559 6723 1234829834 21134 2048 2257849116 78607 633425219 224404 2886795681 93656 105644195 227728 235227296 215218 4 201557064 129268 604539177 244548 18 2 2283488436 19673
is_linear=0
shrinkage=0.05


Tree=2
num_leaves=63
num_cat=17
split_feature=21 21 1 29 29 3 19 19 3 1 21 19 3 3 19 4 29 3 29 29 21 1 4 23 19 1 21 28 1 16 3 29 3 8 19 1 28 1 21 29 16 4 6 24 16 4 4 4 4 1 3 6 16 16 21 19 6 6 4 24 30 16
split_gain=8236.7 1372.41 1069.27 536.831 411.609 285.586 193.754 183.601 155.839 140.533 127.96 106.655 98.3776 96.6601 88.9463 86.9737 81.6648 79.9807 79.4917 73.7822 64.7316 63.9954 52.7539 49.9027 45.8609 44.4751 44.2137 40.3707 39.1724 39.0519 37.7102 36.7245 35.9403 35.7019 31.6867 31.674 31.6193 31.2879 31.073 30.9704 34.0366 30.4857 30.4242 29.8142 28.8761 28.2836 27.7212 27.6098 27.4095 26.55 25.4923 25.3374 24.8887 23.458 23.3894 23.2831 22.884 22.7312 24.4458 22.396 22.2474 22.0734
threshold=0 1 9.7350000000000012 0.078423424157906041 0.068387216080402019 49999.960000000006 2 3 65002.000000000007 7.6400000000000015 4 5 60905.000000000007 72001.000000000015 6 23.555000000000003 0.10645014285714287 60905.000000000007 0.10266334285714288 0.031041300000000001 7 22.175000000000001 13.565000000000003 8 9 21.540000000000003 10 1.0000000180025095e-35 16.470000000000002 169878.00000000003 66001.000000000015 0.032053665925514181 81006.000000000015 1.0000000180025095e-35 11 21.985000000000003 inf 16.220000000000002 12 0.15277536885245904 148451.50000000003 14.015000000000002 686.50000000000011 13 253076.50000000003 14.455000000000002 13.655000000000003 24.465000000000003 16.935000000000006 24.940000000000001 85001.000000000015 696.50000000000011 113330.50000000001 167867.00000000003 14 15 706.50000000000011 701.50000000000011 19.445000000000004 16 11.336071184120467 70862.500000000015
decision_type=9 9 2 2 2 2 1 1 2 2 9 1 2 2 1 2 2 2 2 2 9 2 2 1 1 2 9 10 2 10 2 2 2 2 1 2 8 2 9 2 8 2 2 9 8 2 2 2 2 2 2 2 8 10 9 1 2 2 2 9 2 10
left_child=2 4 9 11 19 16 8 15 18 30 14 31 28 21 22 25 24 36 37 29 -21 53 -7 -13 41 39 -10 -18 -8 60 59 -3 34 56 -22 45 -11 57 -29 40 -5 -4 46 -12 -28 -33 -14 -45 -25 -17 -24 61 -44 -9 -43 -34 -20 58 -6 -1 -2 -15
right_child=1 3 5 7 6 10 12 13 26 17 43 23 42 51 -16 49 27 -19 33 20 32 -23 50 48 -26 -27 44 38 -30 -31 -32 35 55 -35 -36 -37 -38 -39 -40 -41 -42 54 52 47 -46 -47 -48 -49 -50 -51 -52 -53 -54 -55 -56 -57 -58 -59 -60 -61 -62 -63
leaf_value=0.0030641070166383864 0.010486224266570832 0.0047248410816022107 -0.016113911500501833 0.031503656123588068 0.0042059269515990214 -0.020927940970195354 0.036951294866828396 0.06749721215318287 -0.0079317118881531146 -0.023146904840348988 0.017723407960450931 0.051669627574170533 0.012250067370513292 0.068611288490201663 0.0060810218598129359 0.056707246069052669 0.020998948486113132 -0.034027192149442914 0.023772662332794611 -0.0053800444137428495 0.011474052185285183 0.085833267631125948 -0.0067137470193502843 0.020401129756540709 0.01869158745355029 0.054394955715484229 0.016333269370840436 0.011643784378012228 0.05565020210212912 -0.020195298253048648 -0.045969941710033227 0.006447164156045149 -0.0032726248076403331 0.033126486315134367 0.027566472552511795 0.040585469024594881 8.7987244381976416e-05 0.022789923795091205 -0.0029394323911090849 0.046692155898474051 0.0071643046385289474 -0.012517849067248427 0.033756610835008354 -0.025388098860713693 -0.0021514695031202686 0.025685669237374899 0.050110146819874982 -0.013425790274984951 0.040772324431873286 0.12052259470082603 -0.017311352502144502 0.03688055086666947 0.01252443999072159 0.044848434764186762 -0.00042184924797912071 0.011310788548868026 0.0019840730806763361 -0.0093646292721301788 0.020211687830511759 -0.036596949116695192 -0.0061516835436930652 0.048111750243839013
leaf_weight=43.396202512085438 291.59851562976837 463.31539444625378 930.06696139276028 433.09433886408806 520.81716258823872 1701.2262995839119 672.94765427708626 719.619284927845 551.86894400417805 2028.9651502892375 40.231560781598091 382.60870991647243 68.88853645324707 221.04475517570972 629.27757623791695 504.31593215465546 369.35919620096684 3018.4467418566346 1072.430188164115 805.06392757594585 1731.9169899523258 543.98051680624485 1982.4140372574329 388.04678811132908 160.65251971781254 208.47642759978771 608.20258575677872 577.23378662765026 479.76399031281471 368.13960625231266 2076.8781826198101 333.50321497023106 617.34754513204098 1364.4002216756344 371.51363657414913 182.87142200767994 157.81217671185732 611.47662658989429 960.75407280027866 183.65690991282463 214.91540724039078 623.22018006443977 185.74873985350132 3664.8338733762503 323.73650600016117 447.23740309476852 162.16177612543106 555.47288076579571 287.43318405747414 16.843102127313614 795.03047348558903 238.15554128587246 537.19757474958897 135.91797089576721 1097.409534201026 491.66324950754642 135.76303885877132 150.43604849278927 440.17717742919922 1536.48006939888 646.09835255146027 323.50047993659973
leaf_count=351 2235 3513 7310 3184 3983 13451 4894 5025 4274 16195 320 2819 510 1560 4814 3614 2828 24424 7947 6269 13143 3711 15493 2870 1205 1501 4601 4405 3426 2841 17051 2511 4779 10111 2742 1339 1237 4596 7425 1345 1591 4879 1371 29188 2478 3336 1196 4401 2103 117 6270 1703 4002 957 8509 3701 1011 1145 3330 12432 4969 2296
internal_value=-0.000132148 0.0238104 -0.0204129 0.0431599 0.0146609 -0.0118616 0.0219236 0.0551889 0.0171918 -0.0340292 -0.0169141 0.0252127 0.0349044 0.0645551 -0.0114986 0.0420979 -0.0018305 -0.0287518 0.0220174 0.00392941 0.00728539 0.0724247 -0.0139943 0.0372418 -0.00724843 0.0337446 0.00322201 0.00615531 0.0447339 -0.00639553 -0.0415414 0.0162929 0.0104437 0.0275837 0.0143163 0.0218549 -0.0214701 0.0137059 0.0025905 0.0285681 0.0234314 -0.0088206 0.0230275 -0.0233251 0.00980682 0.0174677 0.038822 -0.0237573 0.0290696 0.0587697 -0.00974726 0.0504837 0.0179797 0.063899 -0.00487828 0.00319271 0.0213243 0.00870812 0.0115373 -0.0357198 -0.000977742 0.056433
internal_weight=42387.1 19437.9 22949.2 6228.54 13209.4 14087.2 7886.02 3743.52 5779.31 8861.98 9368.49 2485.02 2106.71 2182.22 5107.95 1561.3 4718.7 5205.22 4295.5 5323.34 4017.51 1399.52 4478.67 1058.09 2811.35 1040.14 1483.81 1907.35 1152.71 1305.84 3656.75 1426.93 3212.44 2572.59 2103.43 963.612 2186.78 1722.91 1537.99 831.667 648.01 2650.7 953.997 4260.54 931.939 780.741 231.05 4220.31 675.48 521.159 2777.44 782.701 722.946 855.537 1720.63 1109.01 1208.19 1111.43 960.994 1579.88 937.697 544.545
internal_count=326837 144649 182188 45095 99554 110498 58875 26604 43476 71690 73937 18491 15399 15252 40028 11352 36561 41856 32123 40679 30634 9693 35214 7792 21903 7621 11353 14658 8320 10045 29834 10699 24365 19069 15885 7186 17432 13054 11830 6120 4775 20698 7079 33909 7079 5847 1706 33589 4973 3731 21763 5559 5373 5982 13388 8480 8958 8458 7313 12783 7204 3856
cat_boundaries=0 1 2 3 4 5 6 7 8 9 10 11 12 13 14 15 16 17
cat_threshold=2047 260096 1 1 1792 1 1 2048 2 1 6144 1 1536 2048 192 1 6400
is_linear=0
shrinkage=0.05


Tree=3
num_leaves=63
num_cat=23
split_feature=21 21 1 29 29 21 1 1 2 29 29 21 25 1 29 29 4 29 25 4 12 15 28 4 25 25 1 4 22 25 12 2 25 25 15 12 25 30 24 25 25 25 4 29 2 25 11 4 4 23 25 16 25 28 25 4 16 8 25 17 29 0
split_gain=7419.11 1171.29 1013.62 446.886 362.733 192.754 145.415 137.417 131.05 126.449 125.225 85.3796 73.9971 72.4078 71.915 65.1389 58.1511 56.2221 55.7461 55.0446 53.3223 53.1773 49.9558 44.1298 52.4385 42.369 41.5748 41.0738 39.7662 39.4673 39.4048 38.5367 35.3279 31.5038 32.198 31.0539 29.3787 29.5513 29.2346 28.9725 28.6213 28.3792 27.8477 27.3755 27.0044 25.9411 25.8949 25.8896 25.8434 25.4918 25.2358 25.2232 25.1091 25.0436 24.9811 29.7047 24.8876 23.3416 23.0278 22.6578 22.501 22.4065
threshold=0 1 9.7350000000000012 0.077071028571428585 0.095252027397260283 2 21.165000000000003 7.8900000000000015 648.69000000000017 0.075280307692307702 0.040428285714285722 3 4 15.805000000000001 0.039049667565139265 0.094639718309859164 22.805000000000003 0.12004409523809527 5 18.805000000000003 12367.500000000002 2.5000000000000004 inf 15.065000000000003 6 7 21.070000000000004 18.715000000000003 8 9 22287.500000000004 700.58000000000004 10 11 3.5000000000000004 8286.5000000000018 12 16.587268993839839 13 14 15 16 24.945000000000004 0.10776639353365831 905.61000000000013 17 32.500000000000007 21.365000000000006 20.285000000000004 18 19 167867.00000000003 20 inf 21 10.035000000000002 241537.00000000003 1.0000000180025095e-35 22 9403.0000000000018 0.1267566003796439 8412.5000000000018
decision_type=9 9 2 2 2 9 2 2 2 2 2 9 9 2 2 2 2 2 9 2 2 10 8 2 9 9 2 2 9 9 2 2 9 9 10 2 9 2 9 9 9 9 2 2 2 9 2 2 2 1 9 10 9 8 9 2 10 2 9 10 2 2
left_child=2 4 7 14 10 9 12 56 13 23 28 25 -5 32 33 38 -14 21 35 36 -17 -8 27 -4 -25 44 58 59 39 -21 45 43 47 -3 -35 -11 -13 -38 -7 53 -15 48 51 46 -12 -10 -20 60 -32 -42 -30 52 -40 -2 -19 -56 -1 61 -16 -9 -6 -57
right_child=1 3 5 6 8 15 17 22 30 18 11 19 16 40 26 20 -18 54 31 29 -22 -23 -24 24 -26 -27 -28 -29 50 -31 41 -33 -34 34 -36 -37 37 -39 42 -41 49 -43 -44 -45 -46 -47 -48 -49 -50 -51 -52 -53 -54 -55 55 57 -58 -59 -60 -61 -62 -63
leaf_value=-0.037622331284682758 0.0086331429404575121 -0.0066252536753580492 -0.017671765064695796 0.024922873580697467 0.01448680938439487 0.011000918646929876 0.060316081481022181 -0.02361246693281932 0.037440144074772107 0.0040112877593908259 0.026502793069164445 0.0076773178353640214 0.041151647822387505 0.014605305818701307 0.0064620004093898717 -0.0011792442139550389 0.060672777656502141 0.028294017544490735 -0.0012952312315872973 0.0014174104056229847 -0.0180621778841757 0.032575635343815267 -0.0022203344798413524 -0.00024357324974393007 -0.016656043575852188 0.012247165796822765 0.040096130677823395 -0.021471993194626237 -0.00079842312530243199 0.019665212943871292 -0.0013734682745441087 -0.0089273308097288229 0.0158152417720216 0.021151723733835379 -0.010725440237130894 -0.012472877773993585 0.0010674443553409 -0.015391024746183958 -0.012055609463940894 -0.0058962078713618339 0.028717053343835886 -0.0069090275959341699 -0.010797753821621412 0.013883235103228784 -0.020654258886410766 0.014129287360113561 0.019315804233344235 0.040326600448364947 0.026806456678750645 0.043591936707754443 -0.016559136385111806 -0.029696159850572647 -0.023776277667424475 0.060976157215004947 0.042603256536264053 0.01107173223150216 -0.046873660043426878 0.085361937788770326 0.026813486235986589 -0.034204526909328868 0.036302263557016157 0.0700695802623124
leaf_weight=3200.8865629434586 625.9083404019475 190.51612716913223 1978.7458381950855 572.14291127026081 300.45281474292278 67.300390914082527 632.01794911921024 657.40549390763044 157.90291965007782 402.62059306353331 1100.0249009728432 796.25219152867794 1138.4041786789894 169.439558416605 193.9640164077282 870.15447519719601 573.77350920438766 75.476943030953407 886.01545578241348 464.14920221269131 1011.151666328311 237.7444209009409 193.00796685367823 1169.4591264799237 829.48835390806198 1737.4092594981194 574.69004067778587 1480.8025743961334 448.95976879447699 860.79435801506042 151.70373520255089 417.8531758338213 985.39792689681053 556.54182505607605 92.361599743366241 983.91640663892031 780.67805500328541 419.17181366682053 704.38426656275988 459.48116493225098 389.55311916768551 347.82669396698475 493.17502824217081 958.79298429191113 31.220226958394051 628.57537648081779 184.04404754936695 387.22332809865475 175.46136717498302 1105.1497430503368 599.69359370321035 1124.6319458708167 1888.0464063286781 23.717710867524147 63.68908853828907 17.386208578944206 940.58788514137268 423.80363009870052 848.85402555763721 2176.3064961954951 194.85517311096191 216.38922339677811
leaf_count=26795 4777 1425 15738 4009 2206 534 4235 5389 1169 3129 8159 6063 8008 1216 1426 6838 3953 501 6906 3513 8044 1610 1532 9119 6516 12981 4104 12121 3460 6446 1142 3310 7210 4144 692 7696 5956 3206 5671 3523 2811 2609 3924 7293 240 4677 1433 2814 1306 7843 4635 9122 15225 181 431 119 7961 2807 6198 17892 1411 1433
internal_value=-0.000141005 0.0222451 -0.0196878 0.0398176 0.0137815 -0.0113681 0.0502925 -0.0331484 0.0244514 -0.00612546 0.00741507 0.0110309 0.0420993 0.0296617 0.0231356 -0.0179779 0.0474165 0.0615232 0.000347214 0.00551422 -0.0102534 0.0527334 -0.0271073 -0.0123785 -0.00713868 0.0173379 0.029298 -0.0282206 -0.00295715 0.0134318 0.0118592 0.00487979 0.0229046 0.011261 0.0163623 -0.00763119 0.000286409 -0.00464368 -0.0214172 0.0036472 0.0372463 0.00299693 -0.0219095 0.00774749 0.0249805 0.0194652 0.00224975 0.0302977 0.0133322 0.0394513 -0.00988278 -0.0234427 -0.0207299 0.0103843 0.0711185 0.0741792 -0.0397234 0.0783655 0.0233472 -0.0317472 0.0230691 0.0656818
internal_weight=42367.5 19748.8 22618.8 6407.76 13341 13969.8 3950.83 8649 4993.54 7810.94 8347.46 6189.7 2284.32 3532.07 2456.93 6158.84 1712.18 1666.51 3833.24 3321.05 1881.31 869.762 4507.52 3977.69 1998.95 2868.65 1617.51 4314.51 2157.76 1324.94 1461.47 2446.71 1867.93 839.42 648.903 1386.54 1996.1 1199.85 4277.54 1109.11 1664.14 674.992 4210.24 2028.85 1131.25 786.478 1070.06 882.531 327.165 1494.7 1048.65 3717.06 2592.43 649.626 796.745 721.268 4141.47 657.579 1042.82 2833.71 495.308 233.775
internal_count=326837 144649 182188 45095 99554 110498 27106 71690 36414 61140 63140 46564 15970 25511 17989 49358 11961 11136 29767 25184 14882 5845 36934 31373 15635 21380 11728 35402 16576 9959 10903 18942 13641 6261 4836 10825 15225 9162 34476 8481 11870 5057 33942 15632 8399 5846 8339 6431 2448 10654 8095 30018 20896 4958 5291 4790 34756 4359 7624 23281 3617 1552
cat_boundaries=0 1 2 3 4 6 8 10 12 13 15 17 19 21 22 24 26 28 30 31 33 35 37 39
cat_threshold=2047 260096 1792 245760 2793488801 255424 541543657 208084 1079215967 70155 1237615106 37379 48 2789328364 224512 140247578 21017 2261599586 221184 1322453763 66507 2312 3779202834 50893 2717974657 256080 3290169870 5683 1082523714 10 1 3946858374 132888 3943336462 139585 2751496673 205568 747061408 222144
is_linear=0
shrinkage=0.05


Tree=4
num_leaves=63
num_cat=28
split_feature=21 21 1 29 29 3 19 19 1 3 19 21 19 3 3 25 29 25 4 29 3 21 25 21 4 23 25 3 25 16 28 25 16 25 19 16 1 25 3 12 29 19 1 25 28 25 25 29 4 4 4 25 4 21 29 25 3 4 25 21 30 4
split_gain=6690.11 1005.31 959.733 375.473 323.242 253.049 162.373 135.917 134.536 126.03 116.856 90.7567 90.2604 77.0793 74.8792 68.7829 67.9985 63.6377 62.6112 61.3864 60.5429 56.5647 48.4443 47.9057 42.4157 40.8011 39.4697 38.0229 37.5132 36.5619 35.494 35.1134 34.5722 34.5686 32.9393 32.5991 32.4106 32.2846 29.9033 28.6725 28.4494 28.4444 28.2541 27.811 27.5946 27.2202 26.9806 26.7699 30.5175 26.7054 26.5946 26.2322 26.1944 28.0152 25.0284 29.059 24.937 24.5037 26.5795 24.4116 23.9015 23.482
threshold=0 1 9.7350000000000012 0.079327037697401945 0.068387216080402019 49999.960000000006 2 3 7.6400000000000015 54725.500000000007 4 5 6 60905.000000000007 60905.000000000007 7 0.10645014285714287 8 23.555000000000003 0.029408142857142862 72001.000000000015 9 10 11 18.265000000000004 12 13 66001.000000000015 14 253076.50000000003 1.0000000180025095e-35 15 220271.50000000003 16 17 175711.00000000003 22.275000000000002 18 75000.500000000015 22048.500000000004 0.10266334285714288 19 16.470000000000002 20 inf 21 22 0.032053665925514181 18.995000000000001 17.375000000000004 13.385000000000003 23 21.465000000000003 24 0.067504129837702889 25 45002.000000000007 16.935000000000006 26 27 22.750171115674199 17.025000000000002
decision_type=9 9 2 2 2 2 1 1 2 2 1 9 1 2 2 9 2 9 2 2 2 9 9 9 2 1 9 2 9 8 10 9 8 9 1 10 2 9 2 2 2 1 2 9 8 9 9 2 2 2 2 9 2 9 2 9 2 2 9 9 2 2
left_child=2 4 8 12 19 16 9 18 27 17 11 24 31 44 42 36 22 52 32 35 -17 -21 34 33 -7 -14 39 -1 50 49 -18 -3 46 -11 -4 37 -9 -2 61 -16 -19 -30 -8 -32 -10 -31 -5 -33 -49 -25 56 -26 53 -6 55 -12 -23 -27 -59 -45 -60 -13
right_child=1 3 5 7 6 10 14 15 13 23 54 38 25 -15 26 20 30 40 -20 21 -22 28 -24 29 51 57 -28 -29 41 45 43 47 -34 -35 -36 -37 -38 -39 -40 -41 -42 -43 -44 59 -46 -47 -48 48 -50 -51 -52 -53 -54 -55 -56 -57 -58 58 60 -61 -62 -63
leaf_value=-0.033885140745363716 0.0070099018752414494 -0.00012145072688677419 -0.0020021977709059301 -0.010920440613834443 0.030320708088951005 -0.015181697050922066 0.032732090286331929 0.031485231090362602 -0.021400700090270845 0.012019584211459218 0.011369918566645208 -0.022347629523714541 0.04528526796209166 -0.032352194012906531 0.038457486106246302 0.06839890992465246 0.019590904390012515 0.0052075679256401728 0.049213406416712312 -0.005442433900849441 0.047955057079433594 0.017945237776745917 -0.013425059179871968 0.0078693417617160949 0.0047511019203675051 0.017529760362718933 0.0067750471619482501 -0.044477476067742348 0.010114722440287473 0.013443159470250121 -0.0093530770619741944 0.0071949172952299788 0.012251950514133593 -0.0096942997057933491 0.030721787635636717 -0.020500585057233917 0.052868412163999082 -0.012399579247718819 -0.025310898209585653 0.016793780265920984 0.018617827517799699 0.023886314716586803 0.048224568905712722 0.012184770710168371 0.00037506766210730538 -0.011680130398352258 0.035094227394369772 0.015902532227925936 0.036369498773296878 0.023974598727500324 0.0084208442797835247 -0.010748352989069593 0.033945069049692751 0.013364640978472753 0.0098918315496217702 -0.013480523221683966 -0.01013523144921508 0.010907621690950612 0.05538940418671387 -0.0024529691509126831 0.009059268727448111 -0.01331190051159821
leaf_weight=1498.362939350307 473.5706684216857 346.04320248961449 1392.5285982638597 34.52159558236599 538.01217024028301 1639.9016112163663 699.15154445171356 444.65486939251423 1956.2904567345977 249.48423267900944 159.07246088981628 1464.5310247987509 415.95117947459221 2882.496913947165 337.60196687281132 1019.396380469203 374.98377755284309 636.85050697624683 556.3925206810236 825.97642584890127 561.6767210662365 95.013527423143387 1302.6338827237487 478.53297460079193 584.40637565404177 407.0308646261692 361.38685807585716 1949.6136821210384 1392.3091004192829 178.7675107717514 370.7579373717308 362.24835394322872 249.64000506699085 619.9617832005024 81.394137501716614 313.48141335695982 294.62401255965233 375.11495410650969 2598.62252535671 278.92496807873249 1043.5564798265696 513.13194142282009 508.21408453583717 689.42023923993111 157.17343562096357 241.55507445335388 795.86068058013916 480.2304213643074 293.40596474707127 557.0035974085331 896.84557113796473 496.48567929118872 828.38892586529255 550.55272985994816 419.36432188749313 390.56288989633322 470.97026544809341 102.86468636989594 175.94693522155285 480.81981630623341 33.070339918136597 1412.5404909700155
leaf_count=12783 3626 2556 10977 242 3852 13201 4894 2947 16195 1897 1237 11968 2904 24424 2429 6503 2828 4756 3702 6444 3729 713 10322 3537 4555 2913 2630 17051 10481 1347 2878 2707 1771 4756 604 2469 1873 2908 21343 2020 7492 3744 3426 5191 1237 1821 5505 3487 2081 4075 6726 3934 5910 4033 3245 3083 3568 720 1224 3761 231 11371
internal_value=-0.000145782 0.0208168 -0.0189811 0.0368481 0.0129685 -0.0108932 0.019275 0.0466221 -0.0322774 0.014977 -0.0157276 -0.0176688 0.02221 -0.0270343 0.0309236 0.0544043 -0.00145047 0.020841 0.0355872 0.00344666 0.060752 0.00626424 -0.00645034 0.00590502 -0.0100763 0.0328215 0.0206395 -0.0398744 0.00912405 0.0114057 0.00579511 0.0140837 0.0285674 -0.00339776 -0.000193773 -0.00672195 0.0394731 -0.0016325 -0.021384 0.0281992 0.0134555 0.0137512 0.0392533 0.00243806 -0.0197813 -0.000952993 0.0334724 0.0182516 0.0236647 0.0165322 0.00304437 -0.00242374 0.0271036 0.0221463 0.000692285 -0.00632684 -0.00542127 0.0256101 0.0361556 0.0062007 0.0458648 -0.0179114
internal_weight=42339.9 20037.9 22302 6573.56 13464.4 13858 8107.95 3956.77 8443.94 5922.67 9165.49 8196.49 2616.79 4995.96 2185.28 2320.35 4692.54 3597.36 1636.41 5356.41 1581.07 4194.25 2776.56 2325.31 2720.79 1134.86 977.914 3447.98 3368.27 1455.86 1915.98 1481.93 1080.02 869.446 1473.92 1162.17 739.279 848.686 5475.69 616.527 1680.41 1905.44 1207.37 1541 2113.46 420.323 830.382 1135.88 773.636 1035.54 1462.83 1080.89 1916.95 1088.56 969 549.635 565.984 718.913 311.882 1170.24 209.017 2877.07
internal_count=326837 144649 182188 45095 99554 110498 58875 26272 71690 43476 73937 66372 18823 41856 15399 15052 36561 26043 11220 40679 10232 31676 21903 17433 21690 7992 7079 29834 25232 10780 14658 10831 7518 6653 11581 9003 4820 6534 44682 4449 12248 14225 8320 11830 17432 3168 5747 8275 5568 7612 11007 8489 13795 7885 7565 4320 4281 5088 2175 8952 1455 23339
cat_boundaries=0 1 2 3 4 5 6 7 9 11 12 14 15 16 18 20 22 24 25 27 28 30 32 33 35 36 38 40 41
cat_threshold=2047 260096 1 1 1 1536 1 2759967209 223184 51152410 4875 2048 3818128983 2819 6144 2 1230276174 138798 647040440 223668 2257438177 92304 75958786 9054 1 3821014710 21277 1 604178761 101532 140215878 7217 603980129 3401747254 99079 245760 3292957192 3 2689139747 105993 1792
is_linear=0
shrinkage=0.05


Tree=5
num_leaves=63
num_cat=27
split_feature=21 21 21 19 3 29 3 19 3 3 29 19 19 29 21 4 28 29 25 25 21 25 25 25 21 3 25 4 4 8 25 25 4 19 16 3 16 29 25 8 25 4 25 28 4 25 5 29 9 8 25 4 25 5 4 29 17 29 17 21 21 9
split_gain=6118.09 1134.42 658.682 446.606 263.032 225.202 208.273 187.568 164.714 100.453 99.524 87.2176 68.5583 63.021 59.6969 56.2105 54.0074 50.9077 49.3795 48.9485 48.1494 58.6379 47.1391 44.3474 40.49 39.2007 38.6046 36.5888 35.9743 36.1691 35.8402 35.7308 34.773 34.7173 33.5345 32.7127 30.3519 30.1654 28.8569 28.7669 28.331 27.4551 27.3148 27.0608 27.1791 26.7556 26.5913 25.672 25.5894 25.4119 25.3574 25.3557 26.7007 25.2939 24.7571 22.8278 22.4972 21.9531 21.2679 20.9716 20.8814 20.7574
threshold=0 1 2 3 65002.000000000007 0.11697715909090911 61004.500000000007 4 72001.000000000015 50504.000000000007 0.098543000000000006 5 6 0.029408142857142862 7 19.175000000000004 inf 0.087377193382481497 8 9 10 11 12 13 14 76001.60000000002 15 12.005000000000001 22.805000000000003 1.0000000180025095e-35 16 17 17.915000000000003 18 80672.500000000015 36002.000000000007 115541.50000000001 0.13276687573964499 19 1.5000000000000002 20 13.025 21 inf 21.365000000000006 22 662.50000000000011 0.11470849042835952 15.500000000000002 1.5000000000000002 23 15.315000000000003 24 717.50000000000011 18.805000000000003 0.13856912727272733 33600.500000000007 0.057114105123551591 33903.000000000007 25 26 10.500000000000002
decision_type=9 9 9 1 2 2 2 1 2 2 2 1 1 2 9 2 8 2 9 9 9 9 9 9 9 2 9 2 2 2 9 9 2 1 8 2 8 2 9 2 9 2 9 8 2 9 2 2 2 2 9 2 9 2 2 2 10 2 8 9 9 2
left_child=2 4 6 5 7 13 12 10 20 -4 15 27 16 40 33 31 18 36 39 57 21 -5 25 43 -11 -15 -17 -6 29 38 -14 59 55 51 61 -9 -10 53 -7 -1 49 -24 -18 44 -12 -36 -44 -22 56 -3 -38 -8 -53 54 -20 -23 -19 -13 -34 -2 -37 -29
right_child=1 3 9 8 11 28 14 35 17 24 23 19 30 22 -16 26 42 48 37 -21 47 32 41 -25 -26 -27 -28 34 -30 -31 -32 -33 58 -35 45 60 50 -39 -40 -41 -42 -43 46 -45 -46 -47 -48 -49 -50 -51 -52 52 -54 -55 -56 -57 -58 -59 -60 -61 -62 -63
leaf_value=-0.0059326995889220279 0.012952583832616493 0.0007371667692275285 -0.023157370266459421 0.02577774610049224 -0.012344735459235886 0.002443637077642159 -0.021918557047530384 0.051892922674944109 0.038678423486917329 -0.032070919291900826 0.014049695530629378 0.0065982314641311046 0.034244197188253687 0.028759844922486306 -0.024578922269451492 0.00085723236302063339 -0.0097121617010613934 0.04366995943592944 -0.018079668329621636 -0.0012162473457236402 0.053117832070930016 0.03547764205647793 0.0020476110491606117 0.0078766755586718359 -0.042240962559271351 0.0093339020083158843 0.017103182933322577 -0.0021740216550885246 0.04557408081654022 0.038431637761419737 0.0015572452357108569 -0.0075684640157411831 0.069058868676624016 0.0016179746563522058 -0.011965500999078137 0.033102513854192342 0.02942101845614566 -0.0040394170158671886 0.030309735530422106 0.01286765325111873 -0.01005904647746843 0.015770241545079416 0.068639436595497996 0.04024965243606294 0.026723141100896741 0.00081652966712188017 0.012368966535636778 0.068574336824716683 0.058092284894288651 0.032241382779704703 0.011179166300524165 0.0027669316165870247 -0.015562617001989658 -0.026961402106217249 -0.0085762418355637745 0.076755931364506189 0.022913299948409592 0.022937462571608905 0.048369432597344254 -0.0005943654216313349 0.019066314074074428 0.014230591663925799
leaf_weight=1657.9346530586481 500.52426017820835 189.69496324658394 1785.2742610648274 410.32537795603275 1172.637049742043 175.0284972935915 1081.42916482687 148.58068589866161 305.24464669823647 2640.3844661638141 945.50349882990122 325.80593249201775 120.22718348354101 1055.945250749588 3720.6009439304471 561.94475952535868 147.12044534087181 388.4492588788271 1542.4763689637184 668.43234546482563 524.66410757601261 317.27715337276459 552.59160234034061 923.79976321011782 2327.75173907727 344.40024413913488 1086.427216745913 347.00371611118317 653.88888534903526 564.86795815825462 251.27530673891306 984.34519355744123 291.31983721256256 300.17556384205818 818.05953289568424 741.77205395698547 396.99150118231773 685.64161098748446 214.36135007441044 231.9343945607543 337.61531636118889 1070.7902482524514 22.718595370650291 177.13495228439569 765.58792258054018 815.04036551713943 276.76185300946236 550.53559182584286 183.55527991056442 96.606976546347141 444.10792736709118 267.84882519394159 783.16313533484936 424.58891400694847 1233.1846843659878 37.446629375219345 196.61913681030273 557.08350886404514 216.5434592962265 654.90207171440125 606.86347949504852 434.02113324403763
leaf_count=13182 3730 1430 15228 2715 9217 1219 8925 1018 2103 22926 6807 2425 906 7452 31308 4264 1143 2510 12536 4991 3333 2102 4032 6733 20882 2504 8056 2672 4341 3879 1910 7569 1866 2321 6374 5023 2751 5365 1484 1840 2570 7662 176 1258 5428 6324 2147 3308 1194 728 3104 2150 6324 3451 9820 239 1296 4020 1409 5099 4321 3326
internal_value=-9.85481e-05 0.0175109 -0.0206447 0.0306741 0.00802793 0.0209523 -0.0139292 0.0136488 0.0427316 -0.0332808 0.0100243 -0.000814643 -0.00776618 0.0140802 -0.0205562 0.00473436 -0.00901194 0.0318485 -0.0103073 0.00909075 0.0516072 0.043306 0.0170655 0.0171506 -0.0369855 0.0238122 0.0116738 -0.00509886 0.03654 0.0303495 0.0130992 -0.000611398 0.0512531 -0.014244 -0.00157924 0.0296264 0.0251731 -0.0135221 0.0186252 -0.00360634 -0.000388031 0.0110312 0.00773995 0.021532 0.0197201 -0.00565457 0.0161 0.0604696 0.0418045 0.010984 0.0202719 -0.0165436 -0.0110131 -0.015596 -0.0138574 0.0398352 0.0366944 0.0167186 0.0602373 0.00533488 0.0271733 0.00694214
internal_weight=42254.8 22754.3 19500.5 9518.87 13235.5 5255.79 12747.1 8097.39 4263.08 6753.41 6600.17 5138.08 6593.86 3647.64 6153.22 3788.14 6222.36 1914.97 5775.76 1551.32 2348.11 1272.91 3023.73 2812.03 4968.14 1400.35 1648.37 3586.76 1608.15 954.258 371.502 2139.77 862.587 2432.62 2414.12 1497.22 1146.34 3885.89 389.39 1889.87 623.917 1623.38 446.601 1888.23 1711.09 1633.1 299.48 1075.2 768.624 286.302 841.099 2132.44 1051.01 3200.25 2775.66 354.724 585.068 882.889 507.863 1155.43 1348.64 781.025
internal_count=326426 163886 162540 65231 98655 37301 103504 59306 27930 59036 48944 39349 52476 26378 51028 28718 49660 12958 46194 11436 14972 8331 21650 20226 43808 9956 12320 27913 10923 6582 2816 16398 5616 19720 18696 10362 7958 31172 2703 15022 4728 11694 3466 13493 12235 12698 2323 6641 5000 2158 5855 17399 8474 25807 22356 2341 3806 6445 3275 8829 9344 5998
cat_boundaries=0 1 2 3 4 5 6 7 8 10 12 14 16 18 20 21 23 25 27 28 30 32 34 36 38 40 41 42
cat_threshold=1023 64512 992 1 1 1 1 768 3281027591 579 1296992834 34479 4128768 2 2224113825 258001 2169537054 36877 1234076446 4975 24 776013121 257528 3234072068 176 1255770658 24075 1 2828320948 36552 687997200 40669 2853241861 84126 1828965628 200836 1221971524 162 100796518 71951 53248 57344
is_linear=0
shrinkage=0.05


Tree=6
num_leaves=63
num_cat=28
split_feature=20 20 20 19 29 3 3 29 19 3 19 29 29 19 16 3 3 25 19 25 4 25 3 8 8 4 4 8 25 4 5 25 25 25 5 25 3 25 25 4 25 25 25 5 25 8 23 25 17 3 28 24 16 5 16 25 17 25 16 25 3 4
split_gain=5541.28 982.035 626.575 432.909 230.692 194.117 192.448 158.22 135.88 97.5363 79.4786 67.2241 66.6992 61.9889 61.6718 52.5821 50.1979 46.6709 45.7525 43.7529 41.8045 40.9764 39.9336 39.8301 38.5637 37.4248 37.2641 37.1245 36.6354 36.27 35.9924 34.7994 33.1913 32.4508 30.9474 30.3231 30.0559 29.2174 28.5351 27.5655 30.6554 25.6677 25.0861 24.9917 24.6485 25.7596 23.4263 31.5358 26.2232 23.3595 22.7452 22.183 27.5323 21.4567 21.4095 21.5435 21.1754 21.1208 21.0082 20.7739 20.3276 19.8024
threshold=0 1 2 3 0.11697715909090911 60905.000000000007 62000.360000000008 0.086412857142857166 4 50504.000000000007 5 0.09803354845056568 0.029408142857142862 6 203516.50000000003 76001.60000000002 41000.250000000007 7 8 9 15.845000000000001 10 73003.000000000015 1.5000000000000002 1.0000000180025095e-35 19.085000000000004 15.315000000000003 1.5000000000000002 11 17.195000000000004 707.50000000000011 12 13 14 742.50000000000011 15 103004.00000000001 16 17 25.205000000000002 18 19 20 687.50000000000011 21 1.5000000000000002 22 23 13002.500000000002 34699.500000000007 inf 24 313226.00000000006 682.50000000000011 152144.50000000003 25 19203.000000000004 26 142427.50000000003 27 103004.00000000001 19.175000000000004
decision_type=9 9 9 1 2 2 2 2 1 2 1 2 2 1 10 2 2 9 1 9 2 9 2 2 2 2 2 2 9 2 2 9 9 9 2 9 2 9 9 2 9 9 9 2 9 2 1 9 8 2 8 9 8 2 8 9 10 9 10 9 2 2
left_child=2 6 5 4 12 13 8 22 11 -4 33 25 44 16 24 21 17 -1 26 -13 -12 23 -5 61 41 38 58 39 -28 -18 50 -22 -15 -8 -11 -27 -35 -26 -2 40 -6 -9 -31 -21 45 -3 54 48 -48 -10 -19 -17 -53 -44 -24 -56 -30 -16 -7 -51 -29 -14
right_child=1 3 9 7 27 18 10 14 49 34 20 19 15 32 57 51 29 30 -20 43 31 -23 46 -25 37 35 28 60 56 42 -32 -33 -34 36 -36 -37 -38 -39 -40 -41 -42 -43 53 -45 -46 -47 47 -49 -50 59 -52 52 -54 -55 55 -57 -58 -59 -60 -61 -62 -63
leaf_value=-0.011724808827028792 0.0043351837978893191 -0.0016511531062512739 -0.022385044284089335 0.036796424713844901 0.0055864812183857668 -0.021633080282916703 -0.012043418857026745 0.022509282680481243 0.051949320054377926 -0.033318995671587907 -0.00026666964401275082 0.0026578852414493033 0.012730928013699461 0.031992672931269193 0.039903413227877597 0.026359821328276418 -0.017801574004951273 0.0038495549845362466 -0.0066005104065500839 0.022847010897762872 0.030585876760695681 0.0098634884340999679 0.045862132275486328 0.033662247154340762 0.025339976918601927 -0.0015634581881530459 -0.0067582916821880045 0.04669574891522741 -0.012650733199728304 -0.022023963852497511 -0.01116362070099323 0.0081048018784565037 0.00090982094197177748 0.0017664951476885678 -0.041807734756076111 0.014634331405619112 -0.010578913791667914 0.058111269724238579 -0.0087549815677868577 0.038802554893209683 0.028381923444800946 0.046665500691811745 0.0032780707255145453 0.010232765522013533 -0.011147048083939778 0.024666997973504898 0.048685337821717981 0.02238018631106773 -0.0084558845858643435 0.014009700928048582 0.02605907169271476 0.0088881638042871951 -0.0096845110613531186 -0.0091921702515849711 0.036917025885118887 0.0088734142632755069 -0.023968221521248664 0.016910532969051179 -0.030361329959122298 0.030015647355338234 0.0034210075047332016 0.025092998801321809
leaf_weight=1007.6746765896678 921.97424482554197 282.96323230862617 1755.3024712204933 757.00973768532276 203.82337795197964 1706.5420460402966 1165.33788664639 207.69598136842251 87.43972547352314 3224.128212980926 704.89797966182232 586.39268340170383 751.42308837175369 127.38142612576485 285.93239066004753 98.985484503209591 1675.4871504455805 1093.9815754368901 594.17919029295444 1195.5389377772808 274.35344940423965 984.27561278641224 161.75062990188599 592.59682860225439 129.37891705334187 422.31202673912048 698.12849562615156 490.82446284592152 593.41462405025959 251.84363412111998 395.41502694785595 501.16987542062998 242.3838137537241 1675.7300075441599 1609.7634185999632 928.31034014374018 698.52559472620487 1144.286006167531 743.33466313779354 467.53900073468685 806.31617774069309 761.28203527629375 506.98511157929897 584.68850615620613 331.64335322380066 138.47560128569603 22.874155268073082 608.35218738019466 164.26837351918221 367.29394808411598 128.85771808028221 568.85424438863993 307.35455034673214 1079.2698834687471 142.95086857676506 164.69492623209953 1361.733660183847 235.01175875961781 1156.6725049391389 740.29301585257053 28.724805235862732 569.44207991659641
leaf_count=8043 7049 2150 15228 5005 1415 14522 9158 1298 584 29092 5218 4266 5352 939 1821 722 13782 8606 4757 8442 1960 7047 1093 4145 803 3208 5812 3245 4967 2041 3137 3674 1840 12984 14716 6835 5520 6942 5766 3052 5472 4669 4036 4180 2545 1037 159 4190 1149 2510 976 4155 2280 8683 977 1137 11460 1503 9903 5036 196 3937
internal_value=-0.000104206 0.0164454 -0.0199234 0.0268605 0.018605 -0.0133724 0.00618556 0.0383424 0.0118177 -0.0324309 -0.00118175 0.00843152 0.0124736 -0.00737474 0.0461188 0.0151211 -0.00857219 -0.00334246 -0.0197833 0.0147394 0.00854632 0.0185008 0.0277133 0.0227732 0.0497187 0.00348167 -0.0212032 0.0328067 -0.0169342 -0.0124807 0.00193765 0.0165567 0.0125075 -0.00525048 -0.0361459 0.00966639 -0.0018578 0.0554376 -0.00153434 0.0287646 0.0241186 0.0422016 -0.00763057 0.0185996 -0.00114165 0.00683425 0.0222773 0.0170503 -0.00139695 0.0270695 0.0061899 0.0050783 0.0023465 -0.00517392 0.0311354 0.0233926 -0.0204287 0.0306213 -0.0251591 0.0251053 0.0443032 0.0180604
internal_weight=42215.5 23006.3 19209.1 11408.7 6623.24 12620 11597.6 4785.49 6577.58 6589.19 5020.01 5382.55 4626.01 6509.28 2763.59 3872.93 6139.51 2625.93 6110.67 2366.62 1480.42 2897.74 2021.9 1913.46 2242.64 3015.93 5516.49 1997.23 2653.28 3513.59 1618.25 775.523 369.765 3539.59 4833.89 1350.62 2374.26 1273.66 1665.31 1477.68 1010.14 968.978 1838.1 1780.23 753.082 421.439 1264.89 795.495 187.143 1195.03 1222.84 975.194 876.209 1586.25 469.396 307.646 1955.15 520.944 2863.21 1107.59 519.549 1320.87
internal_count=326426 163886 162540 77496 46750 103504 86390 30746 47876 59036 38514 39746 33370 52083 17036 27638 49304 20762 51421 16888 10852 20481 13710 13434 13712 22858 46664 13380 22239 28542 12719 5634 2779 27662 43808 10043 18504 7745 12815 9939 6887 5967 14760 12622 5732 3187 8705 5498 1308 8130 9582 7157 6435 12719 3207 2114 16427 3324 24425 7546 3441 9289
cat_boundaries=0 1 2 3 4 5 6 7 9 10 12 14 16 18 20 22 24 26 28 30 32 34 36 37 39 40 42 44 46
cat_threshold=3 4 2 1 1 1 1 205638080 126396 1 2760969441 240656 2303756894 38411 2181040710 6923 1208779266 39 3234203140 176 655082732 22725 771834081 225136 612434337 205200 1255770662 24075 2786083233 198592 2764128485 180689 71630920 196760 1761739120 57081 2 2685111683 252440 6336 3359753800 37011 3360965962 7215 3825566069 242112
is_linear=0
shrinkage=0.05


Tree=7
num_leaves=63
num_cat=7
split_feature=21 21 1 29 3 1 3 1 29 4 21 29 3 4 3 1 3 29 21 29 29 28 15 0 17 3 8 1 8 4 4 4 3 21 15 8 29 8 2 16 17 16 11 2 0 21 5 8 30 29 15 30 9 23 28 9 15 28 16 30 3 29
split_gain=5022.12 871.587 619.862 304.875 211.36 194.342 165.769 110.798 101.592 83.6222 56.6586 56.3878 55.5162 48.061 45.3185 43.5655 43.338 42.9308 41.6961 40.8371 40.2942 32.2245 31.9666 34.4549 31.8424 28.0039 27.642 25.4303 25.3003 24.4925 23.7364 23.1538 22.9367 25.9276 22.5858 22.4559 22.4056 22.0427 20.6348 20.2375 19.9969 19.7136 19.6726 26.3831 20.9787 19.57 19.5318 18.6484 25.4596 18.1589 23.1161 18.9741 18.0134 17.9681 17.8121 17.7007 17.5231 17.4238 17.3981 16.2768 15.945 23.2516
threshold=0 1 9.7350000000000012 0.059139065217391311 65002.000000000007 21.985000000000003 61004.500000000007 7.6400000000000015 0.09803354845056568 17.825000000000003 2 0.036737383989145188 52521.000000000007 19.265000000000004 57003.000000000007 17.305000000000003 85001.000000000015 0.029408142857142862 3 0.11697715909090911 0.13856912727272733 inf 2.5000000000000004 10012.500000000002 33115.500000000007 103004.00000000001 1.5000000000000002 14.495000000000003 2.5000000000000004 15.315000000000003 10.645000000000001 23.235000000000003 28808.640000000003 4 1.5000000000000002 1.0000000180025095e-35 0.064584279228430422 1.0000000180025095e-35 356.32500000000005 303880.50000000006 4210.0000000000009 253076.50000000003 29.500000000000004 610.6600000000002 17337.500000000004 5 727.50000000000011 1.5000000000000002 13.665982203969884 0.12170199604743083 2.5000000000000004 15.83436002737851 11.500000000000002 6 inf 10.500000000000002 1.0000000180025095e-35 1.5000000000000002 393921.50000000006 18.588637919233403 101002.00000000001 0.10325320879120879
decision_type=9 9 2 2 2 2 2 2 2 2 9 2 2 2 2 2 2 2 9 2 2 8 8 2 8 2 2 2 2 2 2 2 2 9 10 2 2 2 2 10 10 8 2 2 2 9 2 2 2 2 10 2 2 1 8 2 10 8 10 2 2 2
left_child=2 4 7 17 8 9 19 14 13 20 11 -6 54 27 -1 21 49 47 29 24 26 42 23 -11 36 -12 39 56 -26 46 -13 -14 -21 -34 -28 59 -4 -15 -25 53 -23 55 43 44 -10 -38 -8 -3 -49 50 -7 -52 -51 -5 -9 -32 -2 -57 -37 -19 -24 -62
right_child=1 3 6 5 10 16 18 12 15 22 25 30 31 37 -16 -17 -18 35 -20 32 -22 40 60 38 28 -27 34 -29 -30 -31 41 -33 33 -35 -36 58 45 -39 -40 -41 -42 -43 -44 -45 -46 -47 -48 48 -50 52 51 -53 -54 -55 -56 57 -58 -59 -60 -61 61 -63
leaf_value=-0.028538289777078577 0.001922138175301436 -0.0035020246931044743 -0.017165192372921603 0.023692894670096616 -0.011308259984409446 0.050321783820549304 -0.020428418463634471 -0.018866480561463148 0.013304943101231016 0.026919098008704668 -0.0021665826503073473 -0.0022177713868349693 -0.030578869822171281 0.0071723774788271999 -0.041354651505250528 0.039589777422510804 0.031995662148139273 0.012945439483327426 -0.022217730631317427 0.014187160628238528 0.034722299124102567 0.077155173446800243 0.027873161078342451 0.062406503073555941 -0.0038950174438875684 -0.012843723448706438 0.034382615280202942 0.0073244149917678541 0.023623361529122672 -0.0079163615415518175 0.0071830636077270431 -0.018521978969242233 0.0023109968131725094 -0.0136151284237329 0.01381591921092306 0.021625040520333885 0.0016626359259362051 0.017724701301858957 0.038903449381022727 -0.0080303637953431008 0.028833046451241254 0.0041361185435503508 0.02324735071443141 0.00085111389190466397 0.026582751368191795 -0.010758429993883815 -0.00073499248028924128 0.029620010024839279 -0.0013461834115203743 0.050222647569007628 0.046389076861768859 0.0096576850635991841 0.067575865623852968 0.011466864252766384 0.00028638837380879164 0.046297101061356837 -0.010532601779930139 0.018379829948890963 -0.0033221763390246582 -0.0063247262342863613 0.021196552229055202 -0.027426136309401362
leaf_weight=1018.4758765399456 772.23911618441343 503.11177632957697 1056.6956034749746 452.29797497391701 431.63981606066227 548.26614753901958 1053.7664581090212 1365.7445166260004 1789.2292366623878 681.86177244782448 1919.1991207227111 392.13660085201263 2735.2398993372917 904.00925949960947 2136.9359929561615 225.57128490507603 376.53245894610882 455.78720431774855 2845.8973301649094 272.17294859886169 418.24578596651554 23.207513965666294 820.94012399017811 100.00462156534195 1267.8959041833878 903.08697553724051 367.93662509322166 1354.8987056016922 89.416033737361431 1176.5609782338142 352.41519106924534 466.03556632250547 1002.2152012437582 332.28404558449984 209.4951019436121 1153.672699637711 410.96257343143225 1093.5340210646391 1411.4793182462454 97.404133275151253 276.38019953668118 554.52434562146664 638.64388247579336 358.03072382509708 356.81024058163166 1422.8177569359541 142.98851205408573 122.48457388579845 144.90166877955198 356.25545731186867 68.744605183601379 71.961531221866608 257.73664699494839 895.53999407589436 133.23362363129854 62.602530553936958 445.23459402471781 521.28143019229174 74.393865950405598 144.26675246655941 99.178616836667061 32.692336231470108
leaf_count=9250 5963 3777 8646 3013 3367 3288 8941 11766 12502 4523 14971 2938 24748 6575 20395 1490 2385 3202 24590 2063 2732 160 5296 611 10204 7180 2469 9934 718 9600 2558 4170 7750 2699 1418 8076 3244 7928 8959 668 1908 4114 4448 2559 2367 11530 1162 899 1072 2070 414 436 1472 6013 1064 454 3472 3767 523 1017 676 222
internal_value=-0.000104489 0.0154654 -0.019218 0.0267393 0.00713604 0.0320228 -0.0116074 -0.0299706 0.0121048 0.0275396 -0.000818295 0.00497015 -0.0251053 0.00713037 -0.0372179 0.0183027 0.0469367 0.012068 -0.0180865 -0.00583131 0.0205949 0.0169077 0.0329276 0.0362494 -0.00839955 -0.00556339 0.0176737 0.00261187 -0.00208218 -0.0129844 0.00872812 -0.0288237 0.000958718 -0.00173924 0.0269209 0.0162402 -0.0113661 0.0129491 0.0404585 0.013979 0.0325763 0.0116073 0.0154141 0.0134163 0.0155126 -0.00802439 -0.0180754 0.00216875 0.0128388 0.0512543 0.0456821 0.0276035 0.057507 0.0155696 -0.0171641 0.0160321 -0.00263261 0.021373 0.0201138 0.00831245 0.0252808 0.00914242
internal_weight=42169.2 23239.9 18929.3 9865.19 13374.7 7266.57 11073.7 7855.67 8237.79 5587.08 5136.89 2314.6 4700.25 4569.92 3155.41 3667.87 1679.5 2598.62 5219.21 5854.46 2440.92 3442.3 3146.16 2193.35 4247.79 2822.29 2022.67 2572.37 1357.31 2373.32 1882.96 3201.28 1606.67 1334.5 577.432 1828.12 2890.48 1997.54 1511.48 1445.24 299.588 1490.82 3142.71 2504.07 2146.04 1833.78 1196.75 770.498 267.386 1302.96 688.972 140.706 613.992 1347.84 1498.98 936.299 1217.47 583.884 1228.07 600.054 952.811 131.871
internal_count=326426 163886 162540 65231 98655 46665 91147 71393 59306 36600 39349 17198 41748 33872 29645 25434 10065 18566 44293 46854 16313 23944 20287 14093 34342 22151 13581 19369 10922 19703 13831 28918 12512 10449 3887 12818 23420 14503 9570 9694 2068 10893 21876 17428 14869 14774 10103 5748 1971 7680 4138 850 3542 9026 12830 6779 9435 4221 8599 4219 6194 898
cat_boundaries=0 1 2 3 4 5 6 7
cat_threshold=1023 64512 57344 768 896 512 2
is_linear=0
shrinkage=0.05


Tree=8
num_leaves=63
num_cat=13
split_feature=1 1 1 3 19 19 3 1 19 3 1 1 15 3 0 0 15 3 3 24 4 3 4 19 24 4 4 24 1 4 28 4 1 17 19 5 1 24 5 17 4 16 4 3 15 2 2 24 16 1 16 2 24 8 23 24 1 0 3 28 28 5
split_gain=4421.61 771.758 645.044 226.694 179.855 179.574 166.924 108.803 96.1222 94.6443 80.6011 66.7085 59.4457 52.9757 50.0706 50.0683 44.6147 43.9819 42.5703 40.0059 39.7045 39.456 39.1937 39.1731 38.8001 36.6626 32.7196 31.5746 30.6469 29.7637 29.5371 29.415 28.9767 28.8988 27.7822 27.6189 26.6375 28.8889 25.1912 24.1974 23.0647 22.7616 22.1967 21.8494 21.6513 21.4319 21.1357 21.0742 20.7128 20.5297 19.4801 18.7348 25.8485 18.7317 17.5853 21.1588 21.8615 17.5523 17.5163 17.5143 17.4795 17.0833
threshold=13.235000000000001 18.880000000000006 9.7350000000000012 66001.000000000015 0 1 45601.000000000007 7.6400000000000015 2 72001.000000000015 15.320000000000002 12.145000000000001 1.5000000000000002 52521.000000000007 2012.5000000000002 6012.5000000000009 2.5000000000000004 57003.000000000007 37999.500000000007 3 18.805000000000003 40002.000000000007 20.385000000000002 4 5 23.025000000000002 14.195000000000002 6 21.985000000000003 15.235000000000001 inf 8.8050000000000015 16.220000000000002 3302.5000000000005 7 707.50000000000011 16.470000000000002 8 662.50000000000011 38702.000000000007 12.755000000000001 11407.000000000002 23.235000000000003 85001.000000000015 1.5000000000000002 294.61500000000007 226.24000000000004 9 167867.00000000003 15.690000000000001 52979.500000000007 155.49500000000003 10 1.5000000000000002 11 12 13.675000000000002 11112.500000000002 52000.350000000006 7.5000000000000009 inf 692.50000000000011
decision_type=2 2 2 2 1 1 2 2 1 2 2 2 8 2 2 2 8 2 2 9 2 2 2 1 9 2 2 9 2 2 8 2 2 10 1 2 2 9 2 10 2 8 2 2 10 2 2 9 10 2 10 2 9 2 1 9 2 2 2 10 8 2
left_child=2 3 7 5 14 10 24 17 12 28 18 19 20 -9 -3 33 -11 47 45 -8 54 46 -20 43 -4 -17 44 -14 41 -23 34 -10 -27 -12 35 -26 37 -7 -22 49 -29 -6 -15 -13 -21 60 53 -1 -43 -33 -34 -31 59 -16 55 -5 -57 -18 -39 -53 -2 -24
right_child=1 4 6 8 9 36 11 13 31 16 15 23 27 42 21 25 57 -19 22 26 38 29 61 -25 30 32 -28 40 -30 51 -32 39 50 -35 -36 -37 -38 58 -40 -41 -42 48 -44 -45 -46 -47 -48 -49 -50 -51 -52 52 -54 -55 -56 56 -58 -59 -60 -61 -62 -63
leaf_value=0.013541229575006057 0.005406142627294966 -0.0082011489091612429 0.029480621632422661 -0.010906016576028025 -0.0030495728525467519 0.05184364375920502 0.021480633405975436 -0.016518487966788963 -0.004059065315595886 0.036476796420894554 0.024865447818648509 -0.0072319847390727131 0.023815402683305186 -0.029741753205259843 0.014818262430710688 0.014868697705764634 -0.01820106159643016 -0.040606926489660071 -0.0026442448770172401 -0.018813387686117136 0.044206381423234055 0.0089520340221821478 0.012587272123612041 0.0084883763113118241 -0.0019079962256830407 0.013033679420095506 -0.014835359559128458 -0.015501947969526683 0.052213054366884865 0.0019065808529421541 0.013093010885303688 0.0090222424448672626 0.038391969518631539 0.0037973533162523557 0.018021848227621925 -0.013544908020215532 0.033204311756759024 0.024811612454856465 0.011157949984246266 0.0049064470540203658 -0.0051237982633794334 0.044122490601551691 -0.01784696588769101 -0.017250741082404004 -0.029048357469326061 0.020643585163233696 0.038284701286093868 -0.028928338153846461 0.026348559457253271 0.022597547523004875 0.021512637214062269 0.075483275980544329 0.021249238530855766 0.039521342374156519 -0.0050712287519729584 -0.01850026922674098 0.018911366821207337 0.021236817822648957 0.012626758626499644 0.029701687704415454 0.024462201806484552 -0.00078489175992912843
leaf_weight=29.140194073319435 836.688108086586 149.3657920062542 90.581584542989731 114.56305376440287 30.761386707425117 73.291256561875343 58.08093998581171 1480.2246858328581 293.57984726130962 822.12593619525433 192.65568968653679 1762.1707376539707 68.726214915513992 2673.2131533995271 264.07986414432526 1812.1473843455315 29.327217698097229 2074.9163755998015 1728.7587833404541 1254.025387480855 64.472552195191383 658.50851111859083 901.14040675759315 310.33829139173031 2206.7135909721255 277.64258226752281 2839.164415307343 809.10848198086023 817.36055465042591 97.12126724421978 293.36996987462044 460.14549075812101 452.84319731593132 1049.2148443683982 142.50124034285545 663.09806668013334 875.62130461633205 695.00086757540703 545.83527136594057 603.82428574562073 1582.3598337098956 826.44846718013287 459.64503599703312 787.33830957114697 878.83167688548565 528.71750506013632 428.35339519381523 971.72593966126442 204.4647513628006 705.48916966468096 274.57175014913082 51.739754557609558 782.90878979116678 108.17238226532936 844.25835737586021 45.226163901388645 285.88553941994905 742.51116333901882 512.39522802829742 35.037329062819481 140.55338227748871 324.97245048731565
leaf_count=262 6165 1098 710 891 187 494 476 12830 2138 5120 1392 14328 523 24748 1749 12500 201 20427 13186 10840 476 4552 6570 2374 17454 1905 24133 6407 4573 708 2221 3406 2966 7555 1039 5327 5466 4584 4077 4339 12217 4873 4170 6656 7718 3676 2666 9016 1245 4868 1829 339 5069 708 6552 371 2177 4738 3510 231 1005 2395
internal_value=-0.00010894 0.0145579 -0.0180012 0.00912817 0.0299087 0.0135937 -0.0103922 -0.0291702 0.00170619 0.0373334 0.0103314 -0.0143817 -0.00250094 -0.0243135 0.0198959 0.0154296 0.0283716 -0.0364544 0.00569237 -0.0178483 0.00414178 0.0216259 0.00220536 -0.00828432 -0.00112405 0.0191166 -0.0183141 -0.00763174 0.0449355 0.0171505 -0.00204566 0.0105984 0.0267756 0.00706572 -0.00352681 -0.00459682 0.0264835 0.0218883 0.0146492 0.0130303 -0.00859909 0.0393327 -0.0279966 -0.010326 -0.0230306 0.0125343 0.0307114 -0.0278456 0.0405973 0.0172386 0.0320207 0.0227347 0.0250606 0.0219967 -0.000829596 0.00720549 0.0133968 0.0197383 0.0194793 0.0511087 0.00814691 0.00904308
internal_weight=42123.1 23148 18975.1 17099.7 6048.29 10676.2 11286.2 7688.87 6423.47 3473 8519.91 7889.95 4360.44 4613.08 2575.29 4059.08 1593.96 3075.78 4460.83 5030.1 1900.24 2425.92 2954.87 2859.85 3396.26 2817.2 4972.02 2460.19 1879.04 1625.32 3305.68 2063.04 1005.06 1241.87 3012.31 2869.81 2156.31 1280.69 610.308 1769.46 2391.47 1061.67 3132.86 2549.51 2132.86 1505.96 800.606 1000.87 1030.91 1165.63 727.415 966.807 869.686 372.252 1289.93 445.675 331.112 771.838 1207.4 86.7771 977.241 1226.11
internal_count=326426 161697 164729 123640 38057 75198 93276 71453 48442 20937 61144 66525 33691 41748 17120 28147 10059 29705 32997 43167 14544 16022 22151 23358 26751 19200 42691 19147 10878 10899 26041 14751 6700 8947 23820 22781 14054 8588 4553 12613 18624 6305 28918 20984 18558 10846 5123 9278 6118 8274 4795 6347 5639 2457 9991 3439 2548 4939 8094 570 7170 8965
cat_boundaries=0 1 2 3 4 5 6 7 8 9 10 11 12 13
cat_threshold=1 1 1 2048 1 2440 2048 1 2624 6400 2496 2 12594
is_linear=0
shrinkage=0.05


Tree=9
num_leaves=63
num_cat=8
split_feature=20 20 1 19 29 29 29 29 1 19 16 12 22 4 8 4 4 4 15 12 16 19 4 0 15 16 8 28 1 1 29 4 16 5 4 16 16 16 12 4 16 12 5 15 30 19 4 12 28 30 1 5 8 15 29 15 23 8 2 29 12 29
split_gain=4141.6 675.493 551.609 297.442 165.68 141.328 107.473 106.794 104.56 81.5769 61.0283 51.8701 50.9843 49.9172 48.5726 43.7807 43.6838 42.0162 41.8829 41.1477 34.5386 32.6966 31.1802 30.9881 31.8905 30.9808 29.2065 28.6805 28.6661 27.9471 27.7996 26.9202 25.7558 25.4935 25.3245 25.1152 23.7374 23.576 23.2971 29.8305 23.2443 22.4577 26.3773 20.7528 20.3736 20.0283 19.8886 20.6625 19.8219 19.6906 19.68 19.5755 18.8564 18.6704 18.0937 18.366 18.0138 18.261 17.5307 20.3463 17.4871 18.0935
threshold=0 1 9.7350000000000012 2 0.11697715909090911 0.060842395423687204 0.089867507739938082 0.078792897656141336 7.6400000000000015 3 186088.00000000003 13901.500000000002 4 20.965000000000003 1.5000000000000002 13.385000000000003 16.025000000000002 13.745000000000003 1.5000000000000002 17309.500000000004 181890.50000000003 5 17.825000000000003 1725.0000000000002 8.5000000000000018 66359.000000000015 1.5000000000000002 1.0000000180025095e-35 12.145000000000001 22.425000000000001 0.12937006315789476 15.765000000000002 194544.50000000003 677.50000000000011 16.565000000000001 55881.500000000007 287924.50000000006 253076.50000000003 18597.500000000004 19.905000000000005 9114.5000000000018 2334.5000000000005 697.50000000000011 3.5000000000000004 13.50171115674196 6 25.205000000000002 23033.500000000004 inf 7.169062286105409 20.225000000000005 717.50000000000011 1.5000000000000002 1.0000000180025095e-35 0.13856912727272733 2.5000000000000004 7 1.5000000000000002 467.04000000000002 0.047562546333601942 14250.500000000002 0.1302362938628345
decision_type=9 9 2 1 2 2 2 2 2 1 10 2 9 2 2 2 2 2 8 2 10 1 2 2 8 10 2 10 2 2 2 2 10 2 2 10 10 10 2 2 10 2 2 10 2 1 2 2 8 2 2 2 2 10 2 8 1 2 2 2 2 2
left_child=2 5 8 4 12 16 18 17 32 10 13 30 36 27 15 -14 43 35 56 22 34 25 33 -17 -25 51 46 60 31 37 -9 -13 48 53 -10 52 -3 -21 39 49 -32 -15 -43 -2 50 -30 47 -6 -1 -11 -20 -19 -4 -8 55 -35 -5 -58 59 -46 61 -7
right_child=1 3 7 6 26 9 19 11 20 38 -12 28 14 41 -16 23 -18 21 44 29 -22 -23 -24 24 -26 -27 -28 -29 45 -31 40 -33 -34 54 -36 -37 -38 -39 -40 -41 -42 42 -44 -45 58 -47 -48 -49 -50 -51 -52 -53 -54 -55 -56 -57 57 -59 -60 -61 -62 -63
leaf_value=-0.033680793779021764 -0.0050720832973831665 0.0060484533225114625 -0.018420673947178941 0.041223755028748581 0.022487627128849948 0.01369040341462369 0.05946938482245348 -0.003666764207733068 -0.02464785446629774 0.049259107176241879 -0.0060302079677590622 -0.026387491373760237 0.00054136325528421163 0.045486400723481063 0.023852601903405865 -0.01969248994678257 0.0031532241010441215 -0.0061233295259331289 0.019600690649466738 0.02994634917206539 -0.030267253055832846 0.0038371704776550054 0.049880905527335588 0.019880015173455619 -0.0088482115871676738 -0.018160879064989296 0.036892817799137653 0.0019980884858637597 -0.0065550368332342492 0.042382530561020017 0.021770375766081703 -0.010922795014121087 -0.042672584661708236 0.031948937799394297 -0.015669219112203852 -0.025894073500050675 -0.0093098780857249711 0.0078039863087066424 0.011303537479773149 0.032401012636234613 0.0019303347769154212 0.016184276476524258 0.0011901139096742702 -0.01777686348191803 0.0079150269057507491 0.017927863626355813 0.031756203790407576 0.0025599976072846072 -0.011654573999582486 0.013978126134238609 0.040704872214468196 -0.024277316857201331 -0.0037526816793338903 0.034794257408728151 0.051159726714217861 0.0068503489436303067 0.019920636680330603 0.040891385448997952 0.0075876400405036487 0.03006833556726296 -0.004115029043440784 0.03859967508356249
leaf_weight=1976.9189653992653 1708.0565797761083 1495.3740516230464 1275.4980639666319 334.26075346767902 903.84325571358204 272.92765449732542 139.82018440961838 2059.1453600749373 1787.8134682402015 41.988066658377647 880.18482725322247 403.9353851750493 769.49309721589088 56.211049020290375 908.59293042868376 59.137135624885559 1796.317382119596 1368.9385183230042 353.35787193477154 735.5407483279705 1341.212740495801 314.14413080364466 842.65827831625938 1107.1306133791804 105.8360713198781 1520.7471714168787 551.81274902820587 2494.4478558674455 736.89250551909208 391.84874722361565 210.03524421900511 927.70845901221037 897.7187457382679 171.58586144447327 1400.5948190316558 1062.5511532649398 302.47472635656595 143.70239596068859 807.68441922962666 452.50203546881676 496.86023330688477 1597.7925760149956 359.25981242954731 395.93546260893345 172.19465465098619 94.213045611977577 496.21479374170303 151.94839331507683 107.70731084048748 680.37656616419554 160.70559214055538 166.56130093336105 264.55305974930525 169.71102707087994 61.067618608474731 126.71528632938862 346.71286000311375 148.1738419085741 513.69815885275602 260.35210902988911 90.91816958039999 99.472647495567799
leaf_count=19465 13338 10579 10985 2082 5868 2009 782 16734 16485 278 6771 3506 5513 397 6250 444 13582 11407 2305 4355 12623 2502 4736 7599 749 13007 3441 18553 5976 2168 1611 7777 9143 1001 12640 9378 2236 904 5542 2971 3873 11252 2592 3152 1177 701 3052 1019 1037 4600 1007 1417 2273 970 344 764 2194 926 3378 1653 675 678
internal_value=-0.000110581 0.0137272 -0.0178871 0.0221084 0.0153325 0.00519872 0.0313054 -0.0107132 -0.0283221 0.00907505 0.00610504 -0.00526541 0.0101571 0.00825375 0.0141875 0.0099556 -0.00257357 -0.0152086 0.0232815 0.0379072 -0.0235355 -0.0115235 0.0434828 0.0156503 0.0173734 -0.0131024 0.0270128 0.00412003 -0.0110662 0.0312769 -0.000729833 -0.0156138 -0.0355919 0.0354227 -0.0207037 -0.0199808 0.00344536 0.0263274 0.0178406 0.0223346 0.00782528 0.0143267 0.0134318 -0.00746291 0.0181856 -0.00377969 0.0235 0.0196197 -0.0325428 0.0160289 0.0261982 -0.00809256 -0.015901 0.0459404 0.0263635 0.0212873 0.0322563 0.0261995 0.0138326 0.0212492 0.0155443 0.020344
internal_weight=42071.8 23658 18413.7 11924 6851.86 11734.1 5072.11 10901.8 7511.97 7833.77 5851.21 4928.79 4748.04 4971.03 2950.19 2041.6 3900.31 5972.99 2289.46 2782.65 4529.62 3370.39 1511.56 1272.1 1212.97 3056.25 2103.82 2957.77 2162.75 1271.09 2766.04 1331.64 2982.35 668.9 3188.41 2602.6 1797.85 879.243 1982.55 1174.87 706.895 2013.26 1957.05 2103.99 1460.31 831.106 1552.01 1055.79 2084.63 722.365 514.063 1535.5 1540.05 309.531 359.369 298.301 829.147 494.887 946.245 432.547 463.318 372.4
internal_count=326426 163886 162540 77496 46750 86390 30746 91147 71393 56318 42927 40178 33370 36156 20555 14305 30072 50969 14722 16024 41748 28333 8597 8792 8348 25831 13380 21915 17960 7427 22218 11283 29645 3861 29125 22636 12815 5259 13391 7849 5484 14241 13844 16490 9520 6677 9939 6887 20502 4878 3312 12824 13258 1752 2109 1765 5202 3120 6208 2830 3362 2687
cat_boundaries=0 1 2 3 4 5 6 7 8
cat_threshold=3 4 1 1 2 1 1 2
is_linear=0
shrinkage=0.05


Tree=10
num_leaves=63
num_cat=28
split_feature=20 1 21 19 29 3 3 3 29 25 1 29 4 19 19 25 25 1 3 25 1 9 25 29 25 4 25 16 15 15 8 25 25 4 21 25 25 25 1 5 8 5 9 5 25 25 3 25 19 16 21 12 29 21 24 3 4 25 21 16 25 12
split_gain=3661.81 621.835 508.811 288.2 131.055 125.026 123.345 122.339 84.8649 65.6982 64.5993 51.5487 50.7528 53.7728 48.8939 44.9593 42.6987 41.1927 41.1566 40.0485 36.8539 36.5875 36.4684 35.1699 33.6753 31.5479 30.9086 30.1475 29.2391 29.2239 31.0523 27.6244 26.0934 25.4561 25.3741 25.0159 24.7176 24.0909 23.9915 23.7726 23.6103 23.6084 22.8484 23.2508 22.5022 22.3809 22.1397 21.791 21.5494 23.1183 21.4512 20.8768 20.6849 20.5904 20.2347 19.812 19.3146 19.2454 19.1698 19.0824 19.0767 18.9134
threshold=0 16.220000000000002 1 2 0.11847972602739727 45601.000000000007 60905.000000000007 70001.000000000015 0.088349823529411772 3 7.8900000000000015 0.043181954887218051 19.995000000000001 4 5 6 7 7.5000000000000009 75000.500000000015 8 18.765000000000004 8.5000000000000018 9 0.11771588969521046 10 16.665000000000003 11 238711.50000000003 1.5000000000000002 1.0000000180025095e-35 2.5000000000000004 12 13 10.035000000000002 14 15 16 17 20.825000000000006 672.50000000000011 1.5000000000000002 702.50000000000011 9.5000000000000018 692.50000000000011 18 19 45002.000000000007 20 21 98252.500000000015 22 20491.500000000004 0.052978671947809884 23 24 35500.100000000006 13.925000000000002 25 26 421650.00000000006 27 18262.500000000004
decision_type=9 2 9 1 2 2 2 2 2 9 2 2 2 1 1 9 9 2 2 9 2 2 9 2 9 2 9 10 10 8 2 9 9 2 9 9 9 9 2 2 2 2 2 2 9 9 2 9 1 10 9 2 2 9 9 2 2 9 9 10 9 2
left_child=2 7 5 4 11 19 17 9 20 46 -8 24 13 23 18 27 33 54 21 -1 59 -7 -23 45 -3 55 -6 42 -22 60 36 -16 -20 -13 -18 -14 -31 -30 39 -28 50 -17 61 -44 -27 -11 -2 -32 49 -21 -26 56 -38 -47 -4 57 -36 -19 -24 -5 -9 -10
right_child=1 3 6 8 26 14 10 29 15 12 -12 16 35 -15 31 41 34 25 32 48 28 22 58 -25 40 44 38 -29 37 30 47 -33 -34 -35 51 -37 52 -39 -40 -41 -42 -43 43 -45 -46 53 -48 -49 -50 -51 -52 -53 -54 -55 -56 -57 -58 -59 -60 -61 -62 -63
leaf_value=-0.0096872692863102638 0.0058430213421919548 -0.0096159520681246419 0.013483123244162634 0.016570191625772918 0.012004797321659398 -0.018346141481358658 -0.038377655806973027 -0.0040634828963290954 0.040180630743246668 0.0091430870674094594 -0.026493835399834444 0.0056949533005268942 0.022607152549439832 0.021446125224317478 0.011621662588185994 0.029762192876653222 0.023214502204488924 0.010476180692256816 -0.010482868888908439 0.0037546455021714026 0.033918564455491684 -0.015269102956105085 0.0073210231408925913 0.014165685426536132 0.01065433921551362 -0.019517454909999052 0.031739045699969964 0.02313064666615329 0.0088204056335707322 -0.016601675217939302 0.025157991970795823 -0.008366893349951823 -0.022098182883454207 0.021450079566287479 -0.000632508071669331 0.011503628571762304 -0.011013750913708813 0.028799292675316876 0.040914832967841722 0.018532856820202601 0.017290013444912614 0.013409833871727259 0.052330670034832487 0.034942281770336536 -0.0053089389814074519 -0.0081448537412028999 -0.0038606940882062236 -0.0014389717333659268 0.026141966629914457 -0.011630340177624141 -0.0081326909630890839 -0.008998757516032024 -0.00042560729240611705 0.0044869060391090803 -0.029766608717998473 -0.025310200727528289 0.011401779983071313 -0.017568779445164405 -0.0058762829378975652 -0.0092838925338499089 0.011450101004215726 0.020549462086742597
leaf_weight=944.58507407456636 1118.2387304827571 489.94948652386665 27.140672631561756 1028.4698401093483 498.23979458957911 1199.5626964122057 2095.5080176219344 340.52821980416775 448.06656333804131 483.72986421734095 2517.2556019425392 320.45447660982609 979.3739298582077 499.89021244645119 266.41411727666855 1195.1447732150555 205.81001909077168 77.867579013109207 715.15820544958115 1724.1888131573796 728.17536327242851 959.97333406656981 351.14102789014578 579.10395109653473 272.70221444219351 434.13845539838076 628.74750323593616 237.67773965001106 328.75288319587708 600.55492938309908 113.57076948136091 451.62642464786768 2074.2386725246906 1282.2868035510182 517.13595106452703 1235.5579108893871 804.99704395979643 327.75327429175377 268.85991118848324 744.0141919106245 328.69697614759207 270.71895071864128 654.52196304500103 272.19609947502613 819.48765114694834 828.69455873966217 1239.1986054554582 209.07737075537443 93.421476483345032 284.46000454574823 318.5768578350544 232.82857485860586 1080.2659893706441 517.86929624527693 849.98065201193094 929.12489589303732 938.48743785917759 223.30440724641085 1161.6449567973614 76.691727742552757 456.37223608791828 168.95754976570606
leaf_count=7610 8032 3667 250 6843 3185 10289 21822 2629 2499 3645 24061 2230 6745 3330 2095 6830 1316 688 6337 13634 4445 8188 2859 4009 1984 3881 3934 1445 2094 4729 889 3629 18503 8626 3671 8573 6366 2065 1570 4755 2358 1642 3610 1581 7314 6412 9157 1639 674 2286 2376 1654 8249 3784 8324 8501 6385 1971 9947 549 3527 972
internal_value=-0.000189147 0.0126891 -0.0170775 0.0202098 0.0134359 -0.00967217 -0.0265509 0.00402886 0.02853 0.00767489 -0.0318925 0.00893302 0.0108432 0.00652248 -0.013283 0.0338549 0.0121871 -0.019299 -0.0146584 -0.00119467 0.0215851 -0.0111807 -0.0077046 0.0034262 0.000862085 -0.0160097 0.0237615 0.039486 0.0270197 -0.00353719 -0.00593509 -0.000905224 -0.019237 0.0181865 0.00697808 0.0165673 -0.00782923 0.0193677 0.0270915 0.0245815 0.00647647 0.026561 0.0422598 0.0472233 -0.0104275 2.82307e-05 0.00073908 0.00865818 0.00265501 0.00157586 0.000574672 0.00487395 -0.00492059 -0.00328959 -0.028614 -0.0216978 0.00712639 -0.0105533 -0.00278502 0.0147761 0.00491359 0.0348051
internal_weight=42071.2 23870.9 18200.2 12783.9 7046.79 10226.4 7973.81 11087 5737.13 7481.66 4612.76 4906.93 5124.22 2909.29 7179.76 3247.28 3497 3361.04 6461.72 3046.66 2489.84 3672.32 2472.76 2409.4 1409.93 2483.92 2139.86 1781.42 1384.68 3605.37 2808.47 718.041 2789.4 1602.74 1894.26 2214.93 2485.82 656.506 1641.62 1372.76 919.976 1465.86 1543.74 926.718 1253.63 1830.29 2357.44 322.648 2102.07 2008.65 591.279 1688.45 1885.26 1346.56 877.121 1230.3 1455.62 301.172 1512.79 1105.16 796.9 617.024
internal_count=326864 164001 162863 82286 47711 86051 76812 81715 34575 53687 45883 34267 36498 21180 61847 18579 23882 30929 56123 24204 15996 31283 20994 17850 10385 22355 13444 10107 8604 28028 21872 5724 24840 10856 13026 15318 19344 4159 10259 8689 6718 8472 8662 5191 11195 13841 17189 2528 16594 15920 4360 11710 14615 10196 8574 11160 10056 2659 12806 7392 6156 3471
cat_boundaries=0 1 2 3 5 6 7 9 11 13 15 17 19 21 23 24 26 28 30 32 34 36 37 38 39 40 42 43 45
cat_threshold=3 960 1 2751548897 257504 1 1 1209271064 6191 3469740614 37391 608390400 257448 608651113 166068 2257437931 84098 2751548833 206024 3763603204 16418 645958407 68043 1059061760 524306 539 554189933 156048 2693548977 246937 721913857 149172 1247281154 521 27002376 24072 1 225771520 535552 6400 2690221064 17944 512 3897673923 100411
is_linear=0
shrinkage=0.05


Tree=11
num_leaves=63
num_cat=33
split_feature=21 1 1 19 3 3 29 29 29 3 25 29 19 21 25 25 15 12 25 4 24 4 25 19 1 25 25 25 25 23 21 2 4 24 15 25 24 5 4 28 21 22 22 4 25 25 1 5 3 25 19 21 4 25 25 1 4 21 29 25 25 4
split_gain=3324.5 702.095 372.16 251.485 143.686 141.211 115.077 73.4448 73.0485 65.3734 54.5366 47.6988 43.9886 43.4251 42.1189 40.392 39.9165 39.4283 37.2202 36.3277 35.7221 35.689 34.736 33.8336 32.1522 28.2207 27.8762 26.9579 26.7631 26.3287 26.0712 25.4819 25.3826 27.0593 25.1312 23.7917 25.1835 22.9536 22.7617 26.2799 21.3265 20.6865 20.6734 21.7181 27.0452 26.6177 20.6051 20.5016 20.2756 21.2689 19.8055 19.4668 19.3949 19.0813 18.9847 18.9105 18.8931 18.8152 18.6975 18.674 18.6489 18.6203
threshold=0 16.220000000000002 8.2550000000000008 1 51004.000000000007 71999.500000000015 0.11847972602739727 0.088349823529411772 0.098543000000000006 54005.500000000007 2 0.024407071428571434 3 4 5 6 1.0000000180025095e-35 22775.500000000004 7 13.295000000000002 8 14.545000000000002 9 10 18.765000000000004 11 12 13 14 15 16 642.90000000000009 24.125000000000004 17 2.5000000000000004 18 19 747.50000000000011 18.805000000000003 inf 20 21 22 21.265000000000004 23 24 20.825000000000006 672.50000000000011 37999.500000000007 25 26 27 19.535000000000004 28 29 22.425000000000001 24.235000000000003 30 0.11323425882352943 31 32 17.555000000000003
decision_type=9 2 2 1 2 2 2 2 2 2 9 2 1 9 9 9 8 2 9 2 9 2 9 1 2 9 9 9 9 1 9 2 2 9 10 9 9 2 2 8 9 9 9 2 9 9 2 2 2 9 1 9 2 9 9 2 2 9 2 9 9 2
left_child=2 5 9 6 12 8 11 24 14 48 -10 26 22 27 29 -13 54 18 -9 40 50 60 38 30 -5 -25 -3 -6 -8 -2 -18 -21 33 -15 35 -26 -37 -11 -4 -40 59 -31 43 45 -45 -12 47 -30 49 -1 -16 -22 -32 -54 -7 -19 -27 -33 -24 -17 -20 -47
right_child=1 3 4 7 13 16 28 17 10 37 42 15 -14 32 20 19 23 55 21 31 51 -23 58 25 34 56 -28 -29 46 41 52 57 -34 -35 -36 36 -38 -39 39 -41 -42 -43 -44 44 -46 61 -48 -49 -50 -51 -52 -53 53 -55 -56 -57 -58 -59 -60 -61 -62 -63
leaf_value=0.00063216033156556699 -0.010616778094528862 0.010604593425329281 -0.0078528511533863792 0.01390406375425572 -0.0075324040116351984 -0.01048739363399665 0.011333066275538303 0.012774428199883312 0.0030018069709377205 -0.031836351924878346 0.0087615436900929725 -0.0049200389971517811 0.017155623235361208 0.011908354341350024 -0.0045765324766572036 0.0078859542187002096 -0.013325899523546892 0.018862474908550239 0.0056935342890936953 0.016614881524705666 0.015521159379686829 0.041079738318260992 -0.016535701765089929 0.012264990821864406 0.039634029183275285 -0.0092655228636204373 -0.013625481488906174 -0.017067689498426498 0.029574696123302005 -0.0046258899266797271 -0.0070955575238351529 -0.014302927365716004 -0.011363876288779775 -0.02384627461060998 0.015961385202929661 -0.0084409649248462573 0.025572324553075544 -0.041043251400888763 -0.00027281746280185295 0.027840578271128881 0.01274608743456811 0.0091210126777003103 0.010580671224438806 0.035987280725712688 0.012114457686967256 0.043309880555035235 0.037978043262009473 0.017404418867770787 -0.026174719888441444 -0.021496573951416027 0.013583503961335714 0.0058562846328769095 0.023608090128626271 -0.010010591283387753 0.00744477805063777 0.034868923225301114 0.019999723923011296 0.012359214294665667 -0.0054475181496802198 -0.0070146753950039269 0.030703876859978114 0.0092019189826308741
leaf_weight=182.85691297054291 782.1840103790164 168.77097166329622 1233.0386144071817 1115.4216615557671 1217.5889478251338 172.97273311764002 501.87914445996284 210.23498241603374 1259.7455960810184 1979.6745167449117 565.84915742278099 404.87323136627674 191.12544716894627 52.544364206492901 950.42150600999594 382.19525748491287 1859.5520797073841 709.14368881285191 111.0909763276577 2412.3651983365417 793.50961086153984 1569.620211482048 1138.1881777942181 331.21734395623207 406.24672593176365 497.90465058386326 353.42814394831657 2146.0469192042947 640.70211358368397 617.64584045112133 404.44501773267984 115.75993648916483 513.18601857125759 3257.4416844695807 478.36203399300575 61.925835236907005 460.01371704041958 1028.7454950064421 927.42967558652163 91.310183621942997 524.1967971175909 475.87219339609146 1116.3492804467678 359.19342174381018 227.18613241612911 126.06382407993078 275.00242993235588 752.41701707243919 853.71549512445927 277.05897282063961 178.30586393922567 1624.169795550406 114.68628099560738 59.985825560986996 782.57973452657461 249.42618696391582 62.01850189268589 129.65524861216545 570.88496888428926 443.28217407315969 456.66817435622215 58.621366381645203
leaf_count=1748 6086 1256 10305 7392 10546 1370 3185 1200 8966 20651 3946 2866 1438 481 7213 2732 15394 4218 634 16210 5597 8614 9709 2424 2430 3734 2713 18826 3934 4648 3164 816 4695 30820 3018 379 2777 10961 7569 697 3601 3579 7733 2427 1542 881 1570 4755 8274 2652 1195 12330 868 459 6142 1343 454 880 4648 3193 2570 406
internal_value=-0.000186893 0.0106545 -0.0184252 0.0189722 -0.0136782 0.00264705 0.0126571 0.0266702 0.00615987 -0.0309213 0.0115629 0.00843714 -0.00627304 -0.0179563 0.00245991 0.0101283 -0.00484125 0.0315725 0.0350615 0.0116319 0.00565569 0.0370207 -0.00740356 -0.00742631 0.0202437 0.00091123 -0.00585235 -0.0136486 0.0222531 -0.00359338 -0.010473 0.0150533 -0.0216539 -0.0233148 0.0252711 0.0300691 0.021454 -0.0349847 -0.003269 0.002247 0.00498055 0.00139753 0.0158821 0.0201974 0.0275583 0.0147156 0.0253188 0.0230016 -0.0216154 -0.0131521 -0.00169278 0.00907927 -0.00106389 0.0128412 0.00416688 0.0230275 -0.00591833 -0.000296258 -0.0127573 -0.000103885 0.0264513 0.0308151
internal_weight=42014 26353.2 15660.8 12932.7 11338.8 13420.5 7104.53 5828.15 9135.12 4322.05 3713.01 4934.53 4151.98 7186.81 5422.11 4412.33 4285.36 3306.18 2347.61 4007.45 3546.41 2137.38 3960.85 3329.81 2521.97 891.14 522.199 3363.64 2170 1875.7 2438.67 2657.78 3823.17 3309.99 1406.55 928.186 521.94 3008.42 2251.78 1018.74 1349.67 1093.52 2453.26 1336.91 586.38 750.534 1668.12 1393.12 1313.63 459.916 1128.73 2417.68 579.117 174.672 955.552 958.57 559.923 245.415 1709.07 825.477 567.759 184.685
internal_count=326864 182844 144020 82286 99734 100558 47711 34575 66549 44286 25901 34267 34366 65368 40648 30298 34009 18579 13018 27432 26335 11818 32928 26497 15996 6612 3969 29372 13444 14313 19885 17906 35996 31301 8604 5586 3156 31612 18571 8266 9526 8227 16935 9202 3969 5233 10259 8689 12674 4400 8408 17927 4491 1327 7512 5561 4188 1696 14357 5925 3204 1287
cat_boundaries=0 1 2 4 5 6 8 10 12 13 15 16 18 20 22 24 25 26 27 29 30 31 32 33 35 37 39 40 41 43 45 46 48 50
cat_threshold=511 1 3826339041 232900 1 384 67323368 257520 536936609 84112 604045536 139408 12867 3272868510 144215 1 1284934216 66498 553650448 6749 1737788166 207435 2751548833 206024 1 1383936 2176 1226345984 4642 12528 604954624 18 32 135004176 16915 150995728 4154 2228471556 33114 1 1560576 2287157782 54307 3893444737 100376 10698752 96995144 37198 8408325 102465
is_linear=0
shrinkage=0.05


Tree=12
num_leaves=63
num_cat=29
split_feature=21 20 1 19 29 3 29 19 3 3 25 29 19 25 3 4 21 29 25 25 21 25 4 0 1 25 25 12 4 21 25 3 12 25 24 21 3 24 3 4 9 25 25 15 4 1 0 24 3 25 28 30 3 25 8 4 0 25 21 25 3 24
split_gain=3023.33 626.833 353.783 207.476 170.759 134.115 100.769 84.571 66.2228 63.4062 51.6102 51.0068 48.2511 43.7665 43.5124 44.41 41.3923 42.0349 39.0348 38.1 34.5054 34.1726 31.1135 30.2718 29.1892 28.3731 27.2675 26.9716 26.1006 25.5305 25.2056 23.9623 23.5833 23.1466 22.9999 22.6088 22.8424 21.7338 21.6916 21.4006 21.0744 21.0635 20.9723 20.6486 20.2909 20.1856 20.1376 20.0373 19.8198 19.4879 19.1904 20.5378 19.149 19.8078 18.9039 18.6734 21.9615 21.0714 18.6337 19.112 18.5843 18.4662
threshold=0 1 8.2550000000000008 2 0.067105358851674665 61004.500000000007 0.11697715909090911 3 57003.000000000007 54005.500000000007 4 0.079735445477599323 5 6 37004.000000000007 17.195000000000004 7 0.027091418181818185 8 9 10 11 16.755000000000006 3212.5000000000005 21.985000000000003 12 13 22775.500000000004 13.925000000000002 14 15 60905.000000000007 2334.5000000000005 16 17 18 56002.000000000007 19 80002.000000000015 15.405000000000003 12.500000000000002 20 21 1.0000000180025095e-35 24.125000000000004 6.4400000000000004 2012.5000000000002 22 38482.000000000007 23 1.0000000180025095e-35 11.039014373716634 37999.500000000007 24 1.5000000000000002 15.845000000000001 24612.500000000004 25 26 27 22002.000000000004 28
decision_type=9 9 2 1 2 2 2 1 2 2 9 2 1 9 2 2 9 2 9 9 9 9 2 2 2 9 9 2 2 9 9 2 2 9 9 9 2 9 2 2 2 9 9 8 2 2 2 9 2 9 10 2 2 9 2 2 2 9 9 9 2 9
left_child=2 4 9 6 16 12 13 8 10 52 22 58 14 43 26 -16 17 -2 -8 27 30 38 -6 -15 28 48 -4 40 -25 -21 -7 -27 -12 39 -22 36 -29 -28 -10 -18 47 -17 -33 46 -36 -11 -3 -13 -9 -14 51 -34 53 -1 -20 57 -57 -19 -5 -60 -45 -47
right_child=1 3 5 11 7 20 18 25 21 45 32 19 49 23 15 41 33 55 54 29 34 -23 -24 24 -26 31 37 35 -30 -31 -32 42 50 -35 44 -37 -38 -39 -40 -41 -42 -43 -44 60 -46 61 -48 -49 -50 -51 -52 -53 -54 -55 -56 56 -58 -59 59 -61 -62 -63
leaf_value=0.00061348622721036001 -0.013048213688622898 -0.0085247895874940843 0.0076547166974398123 0.041326333988996877 0.0066547257283580234 -0.018060052246944354 0.0073849383533344734 0.049626378368687718 0.010314209988973201 -0.04210676676534604 0.025672788813418054 0.010065117276154813 -0.0099255116940908522 -0.0074830770632916656 -0.017492332373843966 -0.019215072483698234 -0.0093758760970800159 -0.0071419619339102881 0.021874949130077398 0.014877615891605675 0.0093465334829941245 -0.0076024502291292644 0.020463730281263606 -0.00089248550225906088 0.024680751838596651 0.023686545383087287 -0.0077482969236174412 0.043582238301649034 0.009581443452857337 0.030355654522401312 -0.0074788700548501898 0.020941842883013723 -0.0027445367526373276 -0.013056403219297762 -0.024691587989648517 0.032954410240520392 0.0054355821274239113 0.02547998565756171 -0.0039764149373951296 0.0016616684867571431 0.045689752451242738 -0.0044224746862512963 0.0038399803571576075 0.057760306540877708 -0.011944771365950582 0.013734012075724195 0.023579885752776746 0.035400440079106539 -0.0053700886239409088 0.018155384731112174 0.00057747398782220045 0.019617575486046687 -0.025384625407822155 -0.020802326498772301 0.033667054251804045 0.0098196079887707625 -0.030221976521305434 0.0070777213503654974 0.02857668933263191 0.01481315118054353 0.0092122012185076874 -0.032368197288994219
leaf_weight=182.93892788887024 452.35558371245861 52.508916243910789 496.20598385483027 91.204874470829964 667.50082071125507 1605.1231010630727 429.04654848575592 17.828470349311829 644.05652165412903 631.66475964337587 117.2512621358037 115.49592514336109 78.406832158565521 416.22269879281521 1799.6981106773019 275.76879544556141 926.89614129811525 589.99461886286736 1306.5027445852757 716.15878544747829 55.776692986488342 1279.7821149677038 1048.881902769208 978.0946960747242 214.91145901381969 995.95217943191528 1089.8789227977395 47.991102144122124 1517.8215159699321 516.50677621364594 941.60413859039545 331.86828572303057 156.15705834329128 1262.8458619266748 2561.3755007609725 345.19570963084698 215.30071112513542 42.302661865949631 451.82399114221334 834.57375073432922 483.2530018389225 1688.4362271502614 410.51776906102896 20.140638411045074 355.54091867059469 21.715640895068645 699.81391975283623 1016.4726427942514 201.9295415058732 233.54076051712036 1973.0256757885218 299.79715578258038 836.7122338488698 272.54798962920904 459.361542314291 1014.202237740159 35.440237514674664 450.76530636847019 345.09051299095154 1434.563859000802 927.3633693382144 2273.0301415324211
leaf_count=1750 3538 382 4023 554 4822 14441 2706 112 4903 7015 849 632 611 3051 15902 2369 7700 4484 7979 4110 515 10018 7189 7019 1366 6275 8960 264 10344 2801 8313 2258 1106 10363 24879 1896 1272 348 3618 6504 2587 14278 2880 134 3324 230 4634 5476 1353 1771 14260 2116 8274 2650 2712 7319 259 3365 2147 9066 6421 24367
internal_value=-0.000182395 0.0100602 -0.0177627 0.0182918 0.00287534 -0.0131344 0.0126616 0.00729544 0.00460196 -0.0301185 0.00833018 0.0257473 -0.00775806 0.00862252 -0.00886412 -0.0118184 -0.00394478 0.000768421 0.0215441 0.0293468 -0.0186908 -0.00208751 0.015006 0.00505556 0.0069994 0.0164268 -0.00203554 0.0334186 0.00547694 0.0215553 -0.0141924 0.0185117 0.00375641 -0.00788397 -0.0224215 0.0245972 0.0119354 -0.00629455 0.00438229 -0.00412295 0.0369488 -0.00661965 0.0118188 0.015066 -0.0230588 -0.0341918 0.0213391 0.0332171 -0.000868815 0.0113612 0.00271393 0.0119589 -0.0208938 -0.0126442 0.024802 0.00376197 0.00846764 -0.000983868 0.0190973 0.0176268 0.0102442 -0.0320131
internal_weight=41954.7 26512.5 15442.3 12349 14163.4 11223.7 7021.79 8596.37 6638.28 4218.61 4262.61 5327.23 5704.24 4826.88 5392.29 3763.9 5567.07 2542.76 2194.91 3456.37 5519.42 2375.66 1716.38 3127.05 2710.83 1958.1 1628.39 2223.71 2495.92 1232.67 2546.73 1738.34 2546.23 3024.32 2972.69 608.488 263.292 1132.18 1095.88 1761.47 1615.22 1964.21 742.386 1699.83 2916.92 2926.41 752.323 1131.97 219.758 311.948 2428.98 455.954 1292.2 455.487 1765.86 2090.4 1049.64 1040.76 1870.86 1779.65 947.504 2294.75
internal_count=326864 182844 144020 77553 105291 99734 46748 61759 48881 44286 30342 30805 48262 33351 45880 32549 43532 18965 13397 19038 51472 18539 12011 21780 18729 12878 13331 12127 17363 6911 22754 11413 18331 24567 28718 3432 1536 9308 8521 14204 8695 16647 5138 11571 28203 31612 5016 6108 1465 2382 17482 3222 12674 4400 10691 15427 7578 7849 11767 11213 6555 24597
cat_boundaries=0 1 2 3 4 6 7 9 10 12 14 15 17 19 21 23 25 27 28 30 31 33 35 36 38 40 42 43 45 46
cat_threshold=511 6 1 1 34373914 4619 1 3478258182 37453 28672 2751547809 205960 1230930716 6190 384 3402762508 157547 536936867 41153 3256616458 209473 3233644544 2 2286634233 54388 3268676382 33055 6280 1078820864 1 631 2688617481 196992 1229980160 135718 8433 84641896 100948 2220082948 49498 2719203578 219186 3489660928 84936774 10 2048
is_linear=0
shrinkage=0.05


Tree=13
num_leaves=63
num_cat=27
split_feature=20 20 20 19 3 3 19 3 16 15 0 28 1 24 25 25 25 1 25 0 25 1 0 5 25 3 9 25 3 25 24 25 5 22 25 15 3 9 15 17 25 5 24 13 28 9 17 5 8 9 25 25 5 25 25 17 1 24 24 3 2 25
split_gain=2748.24 434.408 426.657 182.627 129.329 100.354 80.9175 72.4493 57.777 54.7095 58.4758 51.3392 49.4469 46.3601 43.8757 41.7133 41.162 40.5988 37.5601 37.6122 36.5255 35.2507 35.1335 33.0615 31.1988 31.1331 29.2574 28.454 28.2427 27.0791 25.8627 25.7373 24.0601 23.1357 22.7392 22.6439 25.2638 22.4644 23.4855 24.8632 21.8962 20.618 27.6259 20.5584 20.449 20.9006 20.3007 20.4061 19.8988 18.6783 22.2151 18.6264 18.4219 18.6756 18.3016 18.2321 18.207 17.9961 17.829 17.8205 17.7612 17.3088
threshold=0 1 2 3 60905.000000000007 70001.000000000015 4 50504.000000000007 203516.50000000003 1.5000000000000002 6012.5000000000009 1.0000000180025095e-35 7.6850000000000014 5 6 7 8 11.450000000000001 9 2012.5000000000002 10 12.260000000000002 7512.5000000000009 687.50000000000011 11 32000.500000000004 9.5000000000000018 12 94996.000000000015 13 14 15 672.50000000000011 16 17 3.5000000000000004 116002.00000000001 10.500000000000002 1.5000000000000002 6210.0000000000009 18 762.50000000000011 19 40.250000000000007 inf 7.5000000000000009 39025.000000000007 687.50000000000011 1.0000000180025095e-35 12.500000000000002 20 21 687.50000000000011 22 23 15400.500000000002 23.795000000000005 24 25 77995.500000000015 186.405 26
decision_type=9 9 9 1 2 2 1 2 10 8 2 10 2 9 9 9 9 2 9 2 9 2 2 2 9 2 2 9 2 9 9 9 2 9 9 8 2 2 8 10 9 2 9 8 8 2 10 2 2 2 9 9 2 9 9 10 2 9 9 2 2 9
left_child=2 5 4 9 13 6 11 41 23 10 18 40 58 -1 -15 -10 28 -16 -3 -20 -13 30 -7 24 26 -11 -5 -27 -12 48 -6 -23 34 -19 -32 43 -37 38 39 60 -2 42 -4 51 45 -35 49 -48 57 50 -17 -24 -39 -54 -8 -55 -18 -25 59 -9 -22 -45
right_child=1 3 7 8 21 22 54 12 15 25 16 20 -14 14 17 46 56 33 19 -21 37 31 35 29 -26 27 -28 -29 -30 -31 32 -33 -34 44 -36 36 -38 52 -40 -41 -42 -43 -44 61 -46 -47 47 -49 -50 -51 -52 -53 53 55 -56 -57 -58 -59 -60 -61 -62 -63
leaf_value=0.038553961673955327 0.0034216912152113888 -0.0060066731618522986 0.0080681293797977872 0.026294610820711325 0.012903754189641762 -0.014795599208517181 0.0091480925674911444 0.067873239525612167 -0.0029077415615300336 0.024337823916904297 0.02832419642777792 -0.0043786115617384406 -0.024729934541778048 -0.011779446415632375 -0.0082466105530646788 0.045876849427698221 0.012816095026122324 -0.0037790446223600082 -0.012863491694490626 0.015547774678030722 0.0024669840344283939 -0.0009990136666990525 -0.0090781927559547056 0.023443195309587928 0.018934982566116976 -0.003115913999984888 0.038362649477153878 0.0084388558296547445 0.0041258767349825146 0.013557774217060368 0.0049160012018425276 -0.013877697240553565 -0.020211037694386209 -0.0047105461596434429 -0.01620147191275334 -0.0013090081551344434 -0.016627763653973861 0.013064423946533101 -0.0055275731394507609 0.0021335322163563417 0.019439565604714784 -0.029513234142561365 -0.017044743237826603 0.00303751390943599 0.030589235654685527 0.0087507538229150555 0.023289068813708784 -0.0019511167131771659 0.034756753576115955 0.035597456924637276 0.011011948461160031 0.019231718429276817 -0.005321797924772686 0.045956789932422942 0.020867673370661814 0.0061686175586810168 0.039939060295518664 -0.0074140417831627427 -0.036096252279702139 -0.028846750768304202 0.026840724280891737 -0.0080476523497810815
leaf_weight=50.961724393069744 326.11342170834541 402.78817658126354 119.13373360782862 851.21309787034988 63.333359315991402 524.33218951523304 565.36955542862415 9.6774954125285166 273.73356850445271 212.70818667113781 1215.8717472553253 1408.5366606116295 2076.6900237053633 1857.1005280762911 1844.6385536715388 50.393528401851654 1677.3200812712312 1133.9284674674273 133.32522767782211 922.51197937130928 119.24210327118635 605.18586132675409 70.733545310795307 277.76535032689571 595.03664943575859 823.253029987216 1225.0038267076015 1489.3997591212392 133.85454485565424 744.28897802531719 194.97735054045916 1122.0480316355824 3267.9616684243083 427.73137078434229 352.13444653153419 827.97794876992702 398.7776618078351 1121.2794639542699 735.72695276141167 1263.9567508921027 716.13059343397617 291.53198674321175 1163.9492435529828 1323.353030025959 78.795746885240078 884.91569831222296 146.88116782903671 176.07024317979813 454.45513500273228 247.59099213778973 299.7623350918293 265.69769757986069 330.45101852715015 38.717280000448227 1063.7042690590024 112.31086770445108 64.243276506662369 56.735819607973099 1984.4119794741273 9.3768966794013959 200.28178252279758 468.52957803010941
leaf_count=402 2309 2799 1144 4740 551 4282 3661 100 1676 1369 7515 10486 21390 15671 15798 298 10761 9103 983 6168 888 5185 546 1587 3336 5673 6731 10192 924 4279 1837 9813 30770 3441 3333 6359 3198 7927 5407 8990 5044 2894 11204 10083 591 7042 888 1101 2582 1462 1790 2031 2357 282 6742 806 364 335 22489 105 1429 3621
internal_value=-0.000177604 0.010688 -0.0152639 0.0172049 -0.00986452 0.00383716 0.00703999 -0.0265735 0.0241444 0.0119339 0.0152095 0.00449782 -0.0301363 -0.00494402 -0.00535332 0.0144399 0.0191031 -0.00260178 0.00695758 0.0118479 0.00251341 -0.0153929 -0.00275923 0.0269013 0.0302603 0.0060323 0.0332548 0.00434863 0.0257338 0.021049 -0.0180389 -0.00945141 -0.0185378 0.00151113 -0.00888199 -0.000878177 -0.00628863 0.00498706 0.00185399 0.00528366 0.014647 -0.0175102 -0.014783 0.0022404 0.00580768 0.00436433 0.0194183 0.00952834 0.0275944 0.0250865 0.0176543 0.0135815 0.00955177 0.00137143 0.0169846 0.0153521 0.0137377 0.0186886 -0.0357403 0.0132975 0.0177448 0.000111078
internal_weight=41893.9 24355.4 17538.5 12474.2 11883.7 11881.2 8001.82 5654.77 5398.93 7075.28 4549.92 6372.75 4080.16 6278.07 6227.11 1194.43 3091.29 4370.01 1458.63 1055.84 5330.5 5605.64 3879.4 4204.5 2671.25 2525.36 2076.22 2312.65 1349.73 1533.25 3878.41 1727.23 3815.07 2525.37 547.112 3355.07 1226.76 3921.97 2319.21 1583.48 1042.24 1574.61 1283.08 2128.31 1391.44 1312.65 920.698 322.951 788.956 597.747 350.156 336.431 1602.76 481.479 1629.07 151.028 1741.56 334.501 2003.47 19.0544 319.524 1791.88
internal_count=326864 164001 162863 77553 103537 86448 56328 59326 30805 46748 29514 45925 44084 52048 51646 7215 19564 35975 9950 7151 38572 51489 30120 23590 14807 17234 11471 15865 8439 8783 36491 14998 35940 20177 5170 25838 9557 28086 16714 11307 7353 15242 12348 16281 11074 10483 5539 1989 4504 3550 2088 2577 11372 3445 10403 1088 11125 1922 22694 205 2317 13704
cat_boundaries=0 1 2 3 4 5 6 8 10 12 14 16 18 20 22 23 25 26 28 30 31 33 35 37 39 40 41 43
cat_threshold=3 4 2 1 1 2048 608390497 256184 537002032 41616 64258574 36903 1719993665 223490 605110496 232624 1092275742 38462 2697316781 82326 1757546100 2093 6152 2261386062 14851 18 2189790214 66607 3959492549 223556 6976 1078200576 4 684179500 4624 1111658258 4162 2751661489 240833 2054 2048 1313473052 24423
is_linear=0
shrinkage=0.05


Tree=14
num_leaves=63
num_cat=23
split_feature=1 1 1 19 29 29 4 24 28 29 19 15 25 30 16 24 29 4 5 25 25 25 4 25 25 25 16 25 4 25 1 25 16 4 23 25 5 29 28 24 29 8 8 12 5 12 25 25 4 17 25 23 5 12 25 29 29 25 17 4 29 28
split_gain=2450.1 588.706 279.151 173.206 118.714 85.8483 76.4059 68.144 60.7311 55.2357 49.7635 63.8595 43.3194 43.0484 41.4079 40.001 39.0076 35.6364 34.1364 33.7288 33.3805 32.7022 32.4124 31.9265 31.8968 31.1862 30.8235 29.9045 28.1424 27.7904 27.1793 24.2857 24.2573 26.1933 27.655 25.5418 23.6182 22.8957 22.8764 22.8458 22.4988 22.441 21.9044 21.7315 21.2281 25.2602 20.9959 20.7576 20.3366 20.0803 20.0798 18.8977 18.805 18.7435 18.6547 18.6286 18.3604 18.0842 18.0227 19.1716 17.8807 17.591
threshold=12.145000000000001 16.220000000000002 7.9050000000000011 0 0.06245168443496802 0.11847972602739727 17.285000000000004 1 inf 0.088349823529411772 2 1.0000000180025095e-35 3 15.123887748117729 77121.000000000015 4 0.017326219780219785 16.565000000000001 702.50000000000011 5 6 7 21.165000000000003 8 9 10 39936.500000000007 11 10.645000000000001 12 13.615 13 152144.50000000003 25.915000000000003 14 15 702.50000000000011 0.11697715909090911 5.5000000000000009 16 0.083916285714285735 1.5000000000000002 1.5000000000000002 25573.500000000004 697.50000000000011 2334.5000000000005 17 18 11.245000000000003 18401.500000000004 19 20 687.50000000000011 7290.5000000000009 21 0.11323425882352943 0.056256679245283027 22 39025.000000000007 17.915000000000003 0.13752266807165439 1.0000000180025095e-35
decision_type=2 2 2 1 2 2 2 9 8 2 1 8 9 2 10 9 2 2 2 9 9 9 2 9 9 9 10 9 2 9 2 9 10 2 1 9 2 2 10 9 2 2 2 2 2 2 9 9 2 10 9 1 2 2 9 2 2 9 10 2 2 10
